0.0,0.0,0.0,0.0,0.0,0.0,0.0,0.0,0.0,0.0
0.0,0.0,0.0,0.0,0.0,0.0,0.0,0.0,0.0,0.0
0.0,0.0,0.0,0.0,0.0,0.0,0.0,0.0,0.0,0.0
0.0,0.0,0.0,0.0,0.0,0.0,0.0,0.0,0.0,0.0
0.0,0.0,0.0,0.0,0.0,0.0,0.0,0.0,0.0,0.0
0.0,0.0,0.0,0.0,0.0,0.0,0.0,0.0,0.0,0.0
0.0,0.0,0.0,0.0,0.0,0.0,0.0,0.0,0.0,0.0
0.0,0.0,0.0,0.0,0.0,0.0,0.0,0.0,0.0,0.0
0.0,0.0,0.0,0.0,0.0,0.0,0.0,0.0,0.0,0.0
0.0,0.0,0.0,0.0,0.0,0.0,0.0,0.0,0.0,0.0
0.0,0.0,0.0,0.0,0.0,0.0,0.0,0.0,0.0,0.0
0.0,0.0,0.0,0.0,0.0,0.0,0.0,0.0,0.0,0.0
-9.29808e-07,-1.65595e-06,-7.95443e-05,-3.08993e-06,-0.000664581,-4.12569e-06,0.000825851,-7.50886e-07,-2.45072e-05,-4.66657e-05
-3.29992e-06,-3.96852e-06,1.94919e-05,-6.90183e-06,-0.00159377,-9.92826e-06,0.00176615,-2.45663e-06,-5.58535e-05,-0.000109459
-1.40654e-06,-3.8121e-07,0.000215514,-1.51276e-07,-0.000154204,-9.9531e-07,-4.69346e-05,-9.04097e-07,-2.43837e-06,-8.0987e-06
-5.86059e-08,-1.58837e-08,8.97974e-06,-6.30318e-09,-6.42515e-06,-4.14712e-08,-1.95561e-06,-3.76707e-08,-1.01599e-07,-3.37446e-07
0.0,0.0,0.0,0.0,0.0,0.0,0.0,0.0,0.0,0.0
0.0,0.0,0.0,0.0,0.0,0.0,0.0,0.0,0.0,0.0
0.0,0.0,0.0,0.0,0.0,0.0,0.0,0.0,0.0,0.0
0.0,0.0,0.0,0.0,0.0,0.0,0.0,0.0,0.0,0.0
0.0,0.0,0.0,0.0,0.0,0.0,0.0,0.0,0.0,0.0
0.0,0.0,0.0,0.0,0.0,0.0,0.0,0.0,0.0,0.0
0.0,0.0,0.0,0.0,0.0,0.0,0.0,0.0,0.0,0.0
0.0,0.0,0.0,0.0,0.0,0.0,0.0,0.0,0.0,0.0
0.0,0.0,0.0,0.0,0.0,0.0,0.0,0.0,0.0,0.0
0.0,0.0,0.0,0.0,0.0,0.0,0.0,0.0,0.0,0.0
0.0,0.0,0.0,0.0,0.0,0.0,0.0,0.0,0.0,0.0
0.0,0.0,0.0,0.0,0.0,0.0,0.0,0.0,0.0,0.0
0.0,0.0,0.0,0.0,0.0,0.0,0.0,0.0,0.0,0.0
0.0,0.0,0.0,0.0,0.0,0.0,0.0,0.0,0.0,0.0
0.0,0.0,0.0,0.0,0.0,0.0,0.0,0.0,0.0,0.0
0.0,0.0,0.0,0.0,0.0,0.0,0.0,0.0,0.0,0.0
-7.01146e-09,-6.09315e-09,-9.31933e-07,-1.30386e-10,-4.33223e-06,-4.49829e-08,5.49688e-06,-1.99479e-09,-4.38844e-08,-1.28626e-07
-3.68094e-08,-1.7951e-08,-2.93744e-06,-9.01934e-10,-1.95838e-05,-1.39625e-07,2.34049e-05,-4.9683e-08,-1.31975e-07,-5.06809e-07
-0.00013403,-2.11844e-05,-0.000169032,-6.38026e-05,-0.00143853,-3.74778e-05,0.00205471,-7.77367e-05,-3.4367e-05,-7.8545e-05
-0.00022258,-5.70006e-05,-0.0003044,-0.000101193,-0.0040104,-6.05008e-05,0.00513016,-0.000148244,-6.65938e-05,-0.000159246
-0.000105288,-0.00108129,0.000259767,-2.30866e-05,-0.00572027,-2.92823e-05,0.00727824,-0.000187437,-0.000204989,-0.000186351
-0.000185964,-0.000861842,-0.000491275,-1.82505e-05,-0.00385044,-2.20518e-05,0.00600297,-0.000169763,-0.000232743,-0.000170644
-0.000355458,-0.000521271,-0.00105319,-3.58969e-05,-0.00739328,-4.60838e-05,0.010265,-0.000198364,-0.000313332,-0.000348113
0.000338174,-0.000206704,-0.00252601,-4.10916e-05,-0.00969045,-6.81807e-05,0.0134985,-0.000433587,-0.00034211,-0.000528562
0.00115884,-0.00019974,-0.00321038,-0.000144518,-0.0140322,-0.000416023,0.0189078,-0.000805022,-0.000393056,-0.000865719
0.000324616,-0.000264058,-0.00133324,-0.000200954,-0.00915017,-0.00037064,0.0128366,-0.000550466,-0.00051872,-0.000773009
-0.000815084,0.00241366,-0.00165378,-0.000271372,-0.00492395,-0.000283246,0.00713465,-0.000422654,-0.00056069,-0.000617528
-0.00108861,0.00388218,-0.00379863,-0.000278313,-0.0044115,-0.000336697,0.00791676,-0.000443891,-0.00064374,-0.000797547
-0.0011844,-0.000881825,0.00538939,-0.000166428,-0.00596966,-0.000280145,0.00536754,-0.000384758,-0.000795309,-0.00109442
-0.000559396,-0.000675159,0.00263696,-4.71168e-05,-0.00413034,-0.000122842,0.00431567,-0.000122034,-0.000650982,-0.00064476
-0.000254415,-0.000147916,-0.000916859,-7.30316e-05,-0.00187225,-0.000131267,0.00432802,-0.000102791,-0.00049583,-0.000333656
-0.000300924,-0.000182525,-0.00106608,-0.000122078,-0.00121801,-0.000171568,0.0039837,-0.000161399,-0.000425666,-0.000335455
-0.000179157,-0.000142599,-0.000951237,-4.7113e-05,-0.00173239,-9.01048e-05,0.00375716,-5.61896e-05,-0.000342623,-0.000215746
-0.000227259,-0.000180897,-0.00079599,-9.19724e-06,-0.00247702,-1.74366e-05,0.00411149,-3.26665e-06,-0.000278002,-0.000122422
-9.3913e-05,-1.93355e-05,-0.000110477,-1.85763e-06,-0.00181278,-2.80589e-06,0.00214437,-1.45767e-06,-5.62903e-05,-4.54484e-05
-8.49028e-08,-1.7623e-07,-6.27993e-06,-5.08022e-09,-0.000293358,-9.48887e-07,0.000309939,-4.45781e-07,-4.38958e-06,-4.2504e-06
0.0,0.0,0.0,0.0,0.0,0.0,0.0,0.0,0.0,0.0
0.0,0.0,0.0,0.0,0.0,0.0,0.0,0.0,0.0,0.0
0.0,0.0,0.0,0.0,0.0,0.0,0.0,0.0,0.0,0.0
0.0,0.0,0.0,0.0,0.0,0.0,0.0,0.0,0.0,0.0
0.0,0.0,0.0,0.0,0.0,0.0,0.0,0.0,0.0,0.0
0.0,0.0,0.0,0.0,0.0,0.0,0.0,0.0,0.0,0.0
-2.74183e-07,-2.3323e-09,-2.53771e-07,-8.6017e-09,-5.59094e-07,-2.18893e-08,2.00516e-06,-1.40891e-10,-2.60057e-07,-6.25019e-07
9.25582e-05,-9.82009e-10,-1.54555e-06,-9.68216e-08,-9.12769e-05,-3.79915e-06,1.24685e-05,-2.40703e-06,-1.23095e-06,-4.66921e-06
3.6297e-05,-1.00458e-06,-0.000114442,-9.47978e-07,-0.000226844,-3.53593e-06,0.000343849,-5.31846e-06,-1.25443e-05,-1.55089e-05
-6.47472e-05,-3.74529e-06,-6.6167e-05,-3.29751e-06,-0.000141329,-2.24263e-06,0.00032633,-1.01177e-05,-1.24696e-05,-2.22136e-05
-0.000838059,-9.61777e-05,-0.000780636,-0.00016839,-0.0025946,-0.000115161,0.00532842,-0.000248093,-0.000166483,-0.000320829
-0.00121731,-0.000725664,-0.00136925,-0.000445344,-0.00993761,-0.000400954,0.0158516,-0.000659237,-0.000423425,-0.00067285
-0.00192778,-0.00261989,3.25586e-05,-0.000743293,-0.0150633,-0.000359577,0.0232225,-0.0010138,-0.000742816,-0.000784634
-0.00391939,-0.00378335,3.10759e-05,-0.0011844,-0.0172522,-0.000679506,0.0306899,-0.00137722,-0.00155791,-0.000966998
-0.00554303,-0.00559333,-0.00239661,-0.00176127,-0.0310392,-0.0010232,0.0552804,-0.00242193,-0.0032569,-0.00224488
-0.00734288,-0.00496074,0.00499903,-0.00173131,-0.0446985,-0.00171369,0.0672079,-0.00350281,-0.00476978,-0.00348723
-0.0100497,-0.00411592,0.00480136,-0.00229564,-0.0594359,-0.00322611,0.0900415,-0.00396549,-0.00653582,-0.00521833
-0.0145521,-0.00273423,-0.000958496,-0.0038894,-0.0572879,-0.00507573,0.106085,-0.00520237,-0.00896403,-0.00742051
-0.0196174,0.00259726,-0.00018023,-0.0059715,-0.0490539,-0.00634102,0.105075,-0.00635483,-0.011082,-0.00907192
-0.0227583,0.00467652,0.000834355,-0.00647407,-0.0421015,-0.00634876,0.100748,-0.00568447,-0.0127652,-0.0101269
-0.0252785,-0.00268504,0.00260241,-0.00616453,-0.0365662,-0.00643519,0.103238,-0.00510102,-0.0132231,-0.0103872
-0.0227777,-0.00920887,-0.00118545,-0.00570137,-0.0256474,-0.00537484,0.0943509,-0.00439086,-0.0114878,-0.0085766
-0.0197842,-0.0103367,-0.0175483,-0.005336,-0.0152775,-0.00536764,0.0950356,-0.00422144,-0.0099586,-0.00720505
-0.0149505,-0.0106333,-0.019808,-0.00399316,-0.00920061,-0.00295038,0.0787863,-0.0027855,-0.00893656,-0.00552821
-0.00995826,-0.00860741,-0.0160778,-0.00239234,-0.00644048,-0.0039152,0.0565909,-0.00149687,-0.00460159,-0.00310095
-0.00546599,-0.00461895,-0.0144312,-0.00145999,-0.0061093,-0.00390725,0.0414321,-0.000731307,-0.00294992,-0.00175811
-0.00331805,-0.00194982,-0.00997869,-0.00115827,-0.00526947,-0.0024269,0.0271629,-0.000416613,-0.00162536,-0.00101977
-0.00150885,-0.00106359,-0.00359606,-0.000510523,-0.00253342,-0.000893889,0.0114371,-0.000173967,-0.000710524,-0.000446296
-0.000186591,-0.000416558,0.000860665,-5.59607e-05,-0.000863548,-0.000256169,0.00124553,-1.32259e-05,-0.000258261,-5.58858e-05
-8.81935e-06,-0.000103186,0.00121537,-1.92071e-07,-0.000402115,-1.67661e-05,-0.000582566,-5.03977e-08,-8.82525e-05,-1.34265e-05
0.0,0.0,0.0,0.0,0.0,0.0,0.0,0.0,0.0,0.0
0.0,0.0,0.0,0.0,0.0,0.0,0.0,0.0,0.0,0.0
0.0,0.0,0.0,0.0,0.0,0.0,0.0,0.0,0.0,0.0
0.0,0.0,0.0,0.0,0.0,0.0,0.0,0.0,0.0,0.0
-6.18745e-07,6.35164e-05,-4.69607e-06,-3.15193e-07,-1.62218e-06,-1.77595e-07,-4.64031e-05,-8.26264e-09,-8.18448e-06,-1.49072e-06
0.00014288,5.71798e-06,-1.84059e-05,-1.18775e-05,-0.000330369,-3.77987e-05,0.000337168,-1.77403e-05,-4.42158e-05,-2.53583e-05
-0.000282804,-1.25147e-05,-0.000198039,-1.6726e-05,-0.000191459,-5.44309e-05,0.000866743,-6.2157e-05,-2.97474e-05,-1.88639e-05
-0.000845744,-0.000194231,0.00122834,0.00109526,-0.000894703,-0.000777787,0.000950845,-0.000165842,-0.000234574,-0.000161557
-0.0029445,-0.000781207,0.0027734,0.00133967,-0.0061099,-0.0011443,0.00915405,-0.00073559,-0.00089442,-0.000657215
-0.00576528,-0.00305917,0.0107205,0.00365834,-0.0177031,-0.00275724,0.0213676,-0.00273976,-0.00232782,-0.00139403
-0.00941131,-0.00978287,0.0268322,0.00586438,-0.0331451,-0.00355872,0.035701,-0.00518538,-0.00470628,-0.00260788
-0.0197578,-0.0206498,0.0591653,0.0131511,-0.0482903,-0.00986854,0.0488984,-0.00688436,-0.0112449,-0.00451905
-0.0250365,-0.0330665,0.0837673,0.0229523,-0.0665273,-0.0155968,0.0700881,-0.0102496,-0.0184867,-0.00784426
-0.028246,-0.0432086,0.107939,0.0413641,-0.0916785,-0.0226576,0.0895516,-0.0139841,-0.0268489,-0.012231
-0.0377393,-0.045208,0.124,0.058445,-0.117285,-0.0238006,0.110482,-0.0157166,-0.0365795,-0.0165982
-0.0424723,-0.037176,0.12483,0.059455,-0.122927,-0.0283671,0.14024,-0.0191295,-0.0519188,-0.0225345
-0.048663,-0.0286482,0.0992457,0.0619974,-0.117958,-0.0298937,0.179954,-0.0204043,-0.0658262,-0.0298035
-0.0489034,-0.0231707,0.0828007,0.0489179,-0.108156,-0.0258237,0.204235,-0.0204086,-0.0738795,-0.0356109
-0.0450836,-0.034901,0.0723103,0.0322149,-0.0861422,-0.0270942,0.228778,-0.01903,-0.0849512,-0.0361012
-0.0620056,-0.0445755,0.0337984,0.0226994,-0.0696251,-0.025894,0.278241,-0.0179592,-0.0831105,-0.0315687
-0.0714925,-0.0502045,-0.0061044,0.011963,-0.0460937,-0.0162319,0.282767,-0.0138217,-0.0672882,-0.0234935
-0.0621493,-0.0469842,-0.0303464,-0.00205091,-0.0261723,-0.0147848,0.264064,-0.00827192,-0.0551739,-0.01813
-0.0506021,-0.0369549,-0.0379461,-0.00887941,-0.0196278,-0.0165135,0.220368,-0.00588201,-0.0305575,-0.0134041
-0.0379566,-0.0197353,-0.0366188,-0.0155764,-0.012587,-0.00963814,0.160182,-0.00364592,-0.0166464,-0.00777706
-0.0263325,-0.0077017,-0.028791,-0.0097184,-0.00557527,-0.00776416,0.0992223,-0.00215563,-0.00763939,-0.00354418
-0.0110343,-0.00466272,-0.0143051,-0.00378698,-0.000977514,-0.010686,0.0499104,-0.00134475,-0.00124631,-0.00186682
-0.00367717,-0.00221867,-0.00298743,-0.0008723,-0.00176257,-0.0101037,0.022741,-0.000176595,-0.000569255,-0.000373327
-0.00110357,-0.000252718,0.000489101,-0.000116927,-0.000457841,-0.00146095,0.00307689,-9.76547e-06,-0.000122296,-4.193e-05
-0.000203308,-0.000127682,1.22543e-05,6.09615e-07,1.03965e-05,0.000263342,1.78059e-05,2.40764e-08,2.64311e-05,1.26044e-07
0.0,0.0,0.0,0.0,0.0,0.0,0.0,0.0,0.0,0.0
0.0,0.0,0.0,0.0,0.0,0.0,0.0,0.0,0.0,0.0
-1.17255e-08,-6.18654e-09,-9.15763e-07,1.89122e-06,-6.05147e-08,-8.42732e-07,-1.4723e-08,-1.02483e-09,-3.83491e-08,-3.25271e-10
-2.07166e-05,0.00021478,-0.000233656,0.000138506,-8.04333e-06,-5.3312e-05,-0.000181036,-1.67794e-07,0.000144882,-1.23645e-06
-3.67401e-05,-3.64673e-05,-0.00036156,0.00092344,-0.00012714,-0.000585248,4.834e-05,0.000416426,-0.00016046,-8.05893e-05
-0.00129751,-0.000494798,-0.00220638,0.00660921,0.00177179,-0.00313423,-0.000355336,0.0004105,-0.00106544,-0.0002378
-0.00640089,-0.00301216,0.0065178,0.0182503,0.00110651,-0.0083521,-0.00213981,-0.00179375,-0.00289645,-0.0012794
-0.0130317,-0.00751308,0.0225424,0.0322188,-0.00777288,-0.0135498,0.00120972,-0.00381312,-0.0074097,-0.00288059
-0.0179633,-0.0200162,0.0582106,0.0519596,-0.0220836,-0.0214341,0.00762345,-0.0102013,-0.0202146,-0.00588048
-0.0240724,-0.0397083,0.117104,0.0804625,-0.0441613,-0.0394783,0.0136886,-0.0187126,-0.0345156,-0.0106069
-0.0372026,-0.0600643,0.180138,0.114837,-0.0645927,-0.0597638,0.0165836,-0.027204,-0.0452347,-0.0174963
-0.0516847,-0.0617141,0.239046,0.14098,-0.0982865,-0.0712319,0.0262081,-0.0385741,-0.0553307,-0.0294117
-0.0503089,-0.0285296,0.277662,0.154691,-0.126757,-0.0772919,0.0186219,-0.0566104,-0.0622902,-0.0491873
-0.0453015,0.0288797,0.299751,0.150101,-0.151241,-0.0917852,0.0224481,-0.0774005,-0.0570396,-0.0784132
-0.0200108,0.0600152,0.29523,0.132231,-0.16677,-0.101799,0.0326989,-0.0943534,-0.0332711,-0.103971
0.00147786,0.0489442,0.287802,0.0937088,-0.168593,-0.0849915,0.0542813,-0.102538,0.002555,-0.132647
0.011757,0.0205681,0.27214,0.0538193,-0.15848,-0.0384858,0.0884221,-0.100759,-0.00126074,-0.147721
-0.00441027,-0.00817167,0.24231,0.0117211,-0.118324,0.00070536,0.165899,-0.0895593,-0.0479863,-0.152184
-0.0234668,-0.00915011,0.154626,-0.0131162,-0.0938937,0.00991399,0.253557,-0.0742591,-0.0801544,-0.124056
-0.032128,0.0010405,0.061236,-0.00615873,-0.0659995,0.00268067,0.290743,-0.0583858,-0.0997265,-0.0933015
-0.0349792,0.0491493,-0.00888917,-0.0296472,-0.0291944,-0.0106981,0.280654,-0.0418177,-0.10471,-0.0698674
-0.0314403,0.0957505,-0.0589841,-0.054138,0.00259141,-0.00772315,0.225107,-0.0308601,-0.0877681,-0.0525351
-0.0326358,0.104453,-0.0679202,-0.0631729,0.0100862,0.0257676,0.159858,-0.0165926,-0.0848889,-0.0349547
-0.0305766,0.0681001,-0.0578427,-0.0527057,0.0238874,0.052997,0.0916268,-0.0110281,-0.0632957,-0.0211625
-0.0237404,0.0250198,-0.0324664,-0.0436558,0.0243852,0.0561058,0.0424307,-0.00470305,-0.0337022,-0.00967362
-0.0158892,0.000788159,-0.0121344,-0.0142933,0.00939244,0.0288144,0.0179453,-0.00153901,-0.00929839,-0.00378595
-0.00523504,-0.00297293,-0.0012095,-0.00161389,-0.000947048,0.0108927,0.00176432,-0.000415911,0.000722081,-0.000984776
-0.000856245,-0.000566127,-5.59206e-05,-5.1703e-05,-0.00142672,0.00209164,-0.000337551,-5.5745e-05,0.0014386,-0.000180225
-3.94139e-06,-0.000137808,-3.3943e-06,-2.17833e-06,-0.000316234,-2.638e-05,1.13568e-05,-5.54424e-06,0.000498518,-1.43944e-05
0.0,0.0,0.0,0.0,0.0,0.0,0.0,0.0,0.0,0.0
0.0,0.0,0.0,0.0,0.0,0.0,0.0,0.0,0.0,0.0
-0.000180271,-3.25842e-05,-4.32981e-05,0.000551817,-2.86171e-05,-0.000638981,0.000519638,-4.82765e-05,-6.67329e-05,-3.26939e-05
-0.000210433,0.000336705,0.00135211,0.00383641,-2.8842e-05,-0.00304963,-0.000835511,0.000568966,-0.00147366,-0.000496117
-0.00422207,-0.000109373,0.000120406,0.0208344,0.00368587,-0.00861616,-0.00371165,-0.000918708,-0.0053718,-0.00169086
-0.0149223,-0.00887831,0.0156448,0.0573379,0.00914452,-0.0243127,-0.00905546,-0.0048309,-0.0126116,-0.00751596
-0.0250553,-0.0237204,0.0568802,0.0986121,0.00942804,-0.038547,-0.0183773,-0.00890264,-0.0317031,-0.0186146
-0.0378544,-0.04602,0.130167,0.126384,0.000216908,-0.042012,-0.0220618,-0.0168991,-0.0575227,-0.0343981
-0.0566831,-0.0816508,0.199985,0.167682,-0.0168008,-0.0485262,-0.00809318,-0.0359142,-0.0652302,-0.0547686
-0.0662736,-0.112553,0.266168,0.190599,-0.0228451,-0.0330971,-0.0156342,-0.061144,-0.0538152,-0.0914051
-0.0578957,-0.101295,0.310953,0.207413,-0.059213,-0.00210118,-0.0211119,-0.0956135,-0.0604236,-0.120712
-0.0279591,-0.027602,0.332863,0.20909,-0.0933298,0.00480708,-0.0691556,-0.145502,-0.024134,-0.159079
0.0181904,0.0564875,0.345575,0.187067,-0.133031,-0.0173218,-0.0744627,-0.194044,0.0354145,-0.223875
0.0887897,0.0825012,0.364092,0.166649,-0.146618,-0.0388526,-0.107569,-0.236543,0.102485,-0.274934
0.128011,0.0493607,0.353391,0.115906,-0.133349,-0.0245905,-0.0765361,-0.252783,0.176777,-0.336188
0.152444,-0.00571755,0.34591,0.0961988,-0.094825,0.00648918,-0.027663,-0.252687,0.178994,-0.399144
0.17345,-0.0557696,0.302768,0.0597696,-0.0156845,0.0294715,0.0241029,-0.242545,0.166125,-0.441688
0.154725,-0.0759024,0.223298,-0.0154718,0.00271512,0.0569107,0.0878977,-0.213278,0.14601,-0.366904
0.105283,-0.0226746,0.108369,-0.0543201,0.032669,0.0835214,0.132167,-0.173827,0.0721811,-0.28337
0.0664914,0.0727983,-0.0131768,-0.070705,0.0580882,0.0873065,0.138415,-0.139334,0.00924719,-0.209131
0.0158038,0.154291,-0.0676105,-0.076417,0.065645,0.120683,0.0857502,-0.10366,-0.0417061,-0.152779
0.00348692,0.172255,-0.0730672,-0.108589,0.0894373,0.153616,0.028498,-0.0633746,-0.0757484,-0.126514
-0.0198995,0.111614,-0.0659244,-0.115397,0.124706,0.188883,-0.00515282,-0.0423062,-0.0772844,-0.0992385
-0.0410312,0.0351639,-0.0531193,-0.093272,0.125001,0.185661,-0.0132313,-0.0261729,-0.0524422,-0.0665571
-0.0364825,-0.00159512,-0.0223845,-0.0370736,0.0545901,0.119285,-0.00969988,-0.0107734,-0.0235527,-0.0323137
-0.0175809,-0.00973349,-0.00548867,-0.00650392,0.00735067,0.0546392,-0.00757813,-0.00451876,-0.00175083,-0.00883512
-0.00497729,-0.00122013,-0.000433156,-0.000551504,-0.00139963,0.0151875,-0.00186293,-0.00267429,-0.0011057,-0.000962874
-0.000730024,-5.53488e-05,-3.19329e-06,-1.14671e-05,-6.57265e-05,0.000939329,2.5403e-05,-0.000101958,1.58238e-05,-1.28381e-05
0.0,0.0,0.0,0.0,0.0,0.0,0.0,0.0,0.0,0.0
-1.20941e-06,-2.3621e-06,-4.37937e-06,5.05425e-05,-4.96704e-07,-3.03279e-06,-3.35588e-07,-2.47102e-06,-7.34814e-06,-2.89073e-05
-0.000170404,-0.000319543,0.000131919,-1.48503e-05,-0.000458506,-0.000225092,-0.000135619,0.00196807,-0.000264976,-0.000511005
-0.000999182,0.000547938,8.2892e-05,0.0129031,-0.00182612,-0.00629694,-0.00300493,0.0046488,-0.00414982,-0.00190576
-0.00853489,-0.00219776,-0.00102218,0.0531403,0.00644094,-0.0215675,-0.0105127,0.00645471,-0.0114767,-0.0107241
-0.0211594,-0.0156989,0.0177825,0.106131,0.01932,-0.0420767,-0.0212128,0.0181986,-0.0282681,-0.0330164
-0.0402446,-0.0409101,0.0813824,0.150763,0.0247704,-0.0531794,-0.038306,0.0312621,-0.051708,-0.06383
-0.0565411,-0.0786845,0.16353,0.169552,0.023265,-0.0454811,-0.0351457,0.0365453,-0.0639217,-0.113118
-0.0682701,-0.128295,0.212339,0.213699,0.00104597,-0.0319929,-0.0428249,0.0453563,-0.0447904,-0.156267
-0.060024,-0.170726,0.231287,0.218251,-0.0118578,0.0243924,-0.0569274,0.0388317,-0.0282451,-0.184982
-0.0382924,-0.176143,0.236219,0.220059,-0.0553047,0.0894119,-0.0812635,0.00842447,-0.00981894,-0.193291
-0.00351972,-0.0963226,0.218339,0.207406,-0.142122,0.107392,-0.119318,-0.0576783,0.0203282,-0.134504
0.0432711,-0.0181319,0.212085,0.200922,-0.214005,0.0816572,-0.147616,-0.136025,0.0373244,-0.0594811
0.106319,0.0029499,0.19647,0.212132,-0.283301,0.0641461,-0.186517,-0.229392,0.0567094,0.0604838
0.140615,-0.0504118,0.204745,0.183295,-0.364674,0.0550218,-0.164946,-0.274063,0.10115,0.169268
0.180527,-0.137205,0.196678,0.158083,-0.342888,0.0101245,-0.116312,-0.260549,0.163198,0.148343
0.209386,-0.180086,0.164654,0.137912,-0.248787,0.00805474,-0.0904961,-0.22103,0.148892,0.0714985
0.230873,-0.164338,0.104629,0.0873908,-0.152112,0.0502176,-0.0759158,-0.193562,0.102151,0.010665
0.193167,-0.057968,0.0533537,0.0470969,-0.0838014,0.0988334,-0.0855434,-0.174791,0.0454696,-0.0358173
0.14061,0.0565937,-0.00523936,-0.0222656,-0.00535656,0.146161,-0.091092,-0.146732,0.0258315,-0.0985097
0.097532,0.121926,-0.0410896,-0.024693,0.0305895,0.171082,-0.121217,-0.119544,0.0161868,-0.130773
0.0667921,0.102175,-0.057303,-0.0689997,0.120415,0.209851,-0.124084,-0.0778848,0.00807232,-0.179034
0.0279246,0.0396041,-0.0587994,-0.126126,0.214221,0.277302,-0.111412,-0.0620512,-0.00746215,-0.193201
-0.0258844,-0.00972468,-0.0720918,-0.122538,0.195337,0.310859,-0.0901311,-0.0448498,0.00696066,-0.147936
-0.0552769,-0.0262445,-0.0336692,-0.0586171,0.079943,0.247445,-0.0482395,-0.0263202,0.000924295,-0.0799452
-0.0310097,-0.0171886,-0.0105607,-0.0138955,0.0155866,0.123261,-0.0218842,-0.0148868,-0.0017681,-0.0276538
-0.0108446,-0.00233752,-0.00108183,-0.00153612,0.00149119,0.0369076,-0.00547252,-0.00639155,-0.00452541,-0.00620916
-0.00243426,-0.000103509,-2.30273e-05,-3.59408e-05,-0.000490115,0.00449789,-0.000218232,-0.000131979,-0.00095866,-0.00010216
0.0,0.0,0.0,0.0,0.0,0.0,0.0,0.0,0.0,0.0
-0.000182066,-0.000135084,-0.000224536,0.00144688,-0.000194538,-0.000167243,-9.95445e-05,0.00129079,-0.000738378,-0.000996279
-0.000739776,-0.000287791,0.00080476,0.000329334,-0.00107914,-0.0015442,-0.00062681,0.00680598,-0.00116584,-0.00249651
-0.00333786,-0.00125542,-0.00406641,0.0224274,-0.00273271,-0.0105374,-0.00440064,0.0186051,-0.00572474,-0.0089773
-0.0169526,-0.00628566,0.000140282,0.0883596,0.00649504,-0.0425372,-0.0161263,0.0339197,-0.0126658,-0.034347
-0.033915,-0.025508,0.0286422,0.150215,0.0172367,-0.067679,-0.0382145,0.0710758,-0.0253696,-0.0764836
-0.0491349,-0.0631735,0.103782,0.169909,0.014465,-0.0636129,-0.0558923,0.110708,-0.0334348,-0.133615
-0.0583747,-0.107351,0.143078,0.1468,0.0160745,-0.0256041,-0.0509344,0.146848,-0.013217,-0.19732
-0.0607632,-0.164935,0.132737,0.138715,-0.0213396,0.0221434,-0.0525193,0.210058,0.0176791,-0.221775
-0.0332178,-0.21296,0.125131,0.120975,-0.0582152,0.0780068,-0.0729272,0.221543,0.0297153,-0.198051
-0.0135111,-0.240386,0.121561,0.113837,-0.123201,0.134276,-0.109116,0.203345,0.0300777,-0.116882
0.0298996,-0.192045,0.119677,0.0885502,-0.23078,0.14079,-0.143919,0.160002,0.00694149,0.0208848
0.0681723,-0.10822,0.108636,0.0797425,-0.304226,0.0889775,-0.198266,0.108678,-0.0134631,0.169969
0.0838974,-0.0745851,0.112634,0.105984,-0.371441,0.0294591,-0.225011,0.0252894,-0.0174052,0.331179
0.106109,-0.119852,0.116862,0.157695,-0.53181,-0.018518,-0.194135,-0.0357638,-0.0297454,0.549158
0.149256,-0.159995,0.081829,0.18096,-0.588619,-0.0752978,-0.153911,-0.0404148,-0.00990076,0.616094
0.201575,-0.17756,0.0408797,0.151184,-0.461424,-0.0736498,-0.183064,0.0219897,-0.0130016,0.49307
0.247061,-0.144162,0.00615173,0.120243,-0.290053,-0.00853067,-0.24497,0.0564308,-0.0211855,0.279015
0.22986,-0.0667351,0.00821451,0.0701941,-0.184338,0.0641173,-0.301122,0.0535971,0.0128527,0.113359
0.164679,0.0283774,-0.00230898,0.064202,-0.102488,0.12191,-0.300482,0.0514445,-0.00878749,-0.0165485
0.10955,0.0438655,-0.0310945,0.069833,-0.0398557,0.156968,-0.272135,0.0227458,0.0499471,-0.109824
0.0811227,0.00224628,-0.0246284,0.00198841,0.0801936,0.203472,-0.230653,-0.00187726,0.0701082,-0.181973
0.0648968,-0.0446418,-0.0243939,-0.0934368,0.166512,0.280202,-0.183008,-0.0171436,0.0750803,-0.224067
0.00268298,-0.0666917,-0.0746931,-0.129573,0.146075,0.360951,-0.122,-0.0286934,0.0981452,-0.186203
-0.0597014,-0.0562031,-0.0476647,-0.0729508,0.0418475,0.327607,-0.054846,-0.0340321,0.0644969,-0.108553
-0.0437642,-0.0233887,-0.0130188,-0.0164572,-0.00295452,0.180148,-0.0232128,-0.0239579,0.0050723,-0.038466
-0.0130446,-0.00184092,-0.00128276,-0.00136212,-0.0039198,0.043091,-0.00442028,-0.00744118,-0.00224346,-0.00753583
-0.000640698,-0.000198887,-4.3843e-05,-3.33366e-05,-0.000199718,0.00204106,-0.000556678,-6.70228e-05,-0.000135803,-0.000165074
2.97387e-05,8.8472e-08,2.30602e-06,8.17394e-09,1.74537e-06,8.0535e-08,7.66482e-07,-4.49953e-05,2.76e-07,9.98562e-06
-0.000345654,-0.000148245,0.000292037,0.000394826,-0.000684533,-0.000244114,-0.000206447,0.00312413,-0.000897275,-0.00128473
-0.00177365,-0.000347343,-0.00145342,-0.000344406,-0.00238408,-0.00210452,-0.00148431,0.0190679,-0.00266693,-0.00650925
-0.00745644,-0.00217385,-0.00620559,0.0282724,-0.00716373,-0.0155664,-0.00715954,0.0433239,-0.00420281,-0.0216679
-0.0267267,-0.00948692,-0.00119517,0.0959839,0.000692828,-0.0508144,-0.023075,0.0767288,-0.005195,-0.0569121
-0.0465211,-0.0335422,0.0418147,0.140902,0.0126627,-0.0695801,-0.0535288,0.116676,-0.00546734,-0.103416
-0.0526348,-0.0706033,0.0812862,0.131073,0.00271145,-0.0591702,-0.0661937,0.164382,0.0147286,-0.145579
-0.0491783,-0.11534,0.0633445,0.0600756,-0.00879678,-0.0034009,-0.0404629,0.238424,0.0613152,-0.205981
-0.0405614,-0.174395,0.0277359,0.0162463,-0.0640498,0.0613033,-0.0286665,0.275572,0.0907587,-0.163943
-0.0229895,-0.224871,0.0179986,-0.0289934,-0.0740459,0.100398,-0.0560379,0.278736,0.110338,-0.100533
0.00836538,-0.275851,0.0320754,-0.0432105,-0.129739,0.130238,-0.0927061,0.301736,0.0846876,-0.0155977
0.0351413,-0.244364,0.0388417,-0.0890749,-0.17414,0.126831,-0.107818,0.299555,0.0644084,0.0506198
0.0560454,-0.157298,0.0313091,-0.094835,-0.213661,0.0745164,-0.163698,0.284248,0.0511098,0.132264
0.0683701,-0.0656503,0.0417311,-0.0359711,-0.311835,-0.0023518,-0.189983,0.244471,-0.00861877,0.259837
0.0881076,-0.0141556,0.100486,0.103627,-0.539576,-0.0620262,-0.164369,0.227774,-0.12423,0.384361
0.127212,0.00573307,0.09152,0.183888,-0.598537,-0.104166,-0.186746,0.242301,-0.147633,0.386428
0.188483,-0.0493293,0.0516672,0.150646,-0.415782,-0.0921202,-0.285442,0.292943,-0.091003,0.249937
0.211379,-0.0503852,0.0319911,0.116505,-0.216752,-0.0366245,-0.391972,0.323277,-0.079014,0.091596
0.207135,-0.031468,0.0091719,0.107187,-0.130236,0.0219236,-0.448624,0.26501,-0.0130111,0.0129121
0.146546,-0.0273236,0.00631417,0.117784,-0.0791307,0.0947547,-0.411046,0.182776,0.0339373,-0.0646133
0.114771,-0.0681428,-0.0305486,0.127197,-0.0486488,0.160438,-0.327719,0.10624,0.0620441,-0.0956298
0.0879362,-0.106505,-0.0133935,0.0501129,0.00501776,0.223075,-0.268259,0.0426077,0.108413,-0.129006
0.0938502,-0.128858,-0.021278,-0.0612227,0.0619642,0.287459,-0.210108,0.00519453,0.160635,-0.187635
0.0567141,-0.107469,-0.0731349,-0.125437,0.0451302,0.383722,-0.13995,-0.0218371,0.151368,-0.169107
-0.0459742,-0.0711077,-0.0564165,-0.0692074,-0.0172038,0.387128,-0.0667698,-0.0475456,0.0859882,-0.0988914
-0.0518814,-0.0299516,-0.0182208,-0.0198756,-0.0339231,0.239542,-0.0266551,-0.0326405,0.012584,-0.0389779
-0.0112471,-0.00233123,-0.00144853,-0.00158821,-0.0109226,0.0491575,-0.00589297,-0.0100601,0.000379696,-0.00604646
-0.000569363,-0.000125696,-3.77359e-05,-1.89103e-05,-8.97602e-05,0.00139807,-0.00035502,-0.000658041,0.000737609,-0.000281155
-2.67949e-06,-1.62604e-06,-9.34588e-07,-1.35051e-05,-9.20897e-05,-1.69548e-05,-6.12326e-06,0.000304112,-1.1099e-05,-0.0001591
-0.000415116,-0.000106171,-0.00021281,0.00056582,-0.000740613,-0.000255812,-0.000170349,0.00363941,-0.000845405,-0.00145895
-0.00345218,-0.000553682,-0.000226014,-0.00107614,-0.00397516,-0.00197936,-0.00201733,0.0271474,-0.0051216,-0.00874589
-0.0110704,-0.00230395,-0.00163766,0.0234134,-0.0150446,-0.0155386,-0.00983125,0.0625767,-0.00618097,-0.0243826
-0.0306938,-0.0097552,0.00877562,0.0643624,-0.00991314,-0.0382839,-0.0228492,0.100567,0.00256442,-0.064774
-0.0411378,-0.0320869,0.030074,0.0779098,-0.00513978,-0.0465685,-0.0476952,0.133414,0.0180078,-0.0867778
-0.035448,-0.0606545,0.00196691,0.033044,-0.0227974,-0.0248347,-0.0329684,0.159237,0.0680469,-0.0855924
-0.0237346,-0.0957051,-0.0660375,-0.0715977,-0.0307869,0.0376593,0.00380948,0.194584,0.129817,-0.0780082
-0.016505,-0.150503,-0.129942,-0.166749,-0.0576864,0.108963,0.0168177,0.211134,0.185963,-0.00149252
-0.000237908,-0.199222,-0.107322,-0.248707,-0.0399474,0.154952,-0.0330141,0.229226,0.210451,0.0338211
0.0296271,-0.246171,-0.0725996,-0.318377,-0.0477977,0.175968,-0.0407628,0.248802,0.181479,0.0898324
0.0430931,-0.247617,-0.0850632,-0.368521,-0.055516,0.212035,-0.0376973,0.280461,0.141576,0.11725
0.0739079,-0.158556,-0.121384,-0.311086,-0.0807788,0.158732,-0.0541975,0.290523,0.0778629,0.124977
0.0892878,0.0115974,-0.115473,-0.122101,-0.226464,0.0664222,-0.0624106,0.297586,-0.0421094,0.103664
0.0758425,0.193497,-0.0324608,0.104561,-0.491877,-0.0325123,-0.0631233,0.326898,-0.20601,0.125183
0.0656594,0.231684,0.0486611,0.239937,-0.463621,-0.100164,-0.20241,0.370978,-0.258781,0.0680561
0.0886254,0.124874,0.0788053,0.210419,-0.211625,-0.127689,-0.363741,0.431172,-0.194591,-0.0362504
0.134041,-0.00100106,0.0516402,0.150633,-0.0498156,-0.0972759,-0.4582,0.434741,-0.118213,-0.0465505
0.184124,-0.0471359,0.00712436,0.12443,-0.0394054,-0.0637771,-0.460912,0.340045,-0.0268406,-0.0176525
0.161312,-0.0982188,-0.000764598,0.138023,-0.0441744,-0.00841711,-0.395288,0.237433,0.048203,-0.0381072
0.124444,-0.139667,-0.0287798,0.147893,-0.0507135,0.0475198,-0.304491,0.143107,0.0993817,-0.0386941
0.110596,-0.155628,-0.0113431,0.0422575,-0.0440415,0.117241,-0.228234,0.0802237,0.164222,-0.0752924
0.139554,-0.137133,-0.0344047,-0.0496797,-0.00975237,0.163263,-0.180537,0.0247426,0.213688,-0.129741
0.128065,-0.0972487,-0.0732855,-0.0916746,-0.0307978,0.233895,-0.108593,-0.026638,0.188757,-0.12248
0.00517123,-0.0515625,-0.0481802,-0.0447455,-0.0487162,0.269998,-0.0559804,-0.0396702,0.0924691,-0.078784
-0.0366617,-0.0187375,-0.0140531,-0.010079,-0.0368241,0.176358,-0.0262512,-0.0220756,0.0194774,-0.0311529
-0.00704861,-0.00228388,-0.0015988,-0.00125979,-0.0102883,0.031127,-0.00643379,-0.00642375,0.0110701,-0.00686012
-0.000142112,-7.24426e-05,-6.09925e-05,-1.74678e-05,-0.000573201,0.00216387,-0.000590868,-0.00107172,0.00122739,-0.000862454
-4.01339e-06,-1.90826e-06,-1.20079e-06,-1.70621e-05,-0.000107951,-2.16811e-05,-7.2209e-06,0.000446538,-1.33869e-05,-0.000272114
-0.000472059,-5.24214e-05,-0.000128283,-9.87946e-06,-0.000755306,-0.000199749,-0.000138052,0.00418204,-0.000510758,-0.00191553
-0.00434967,-0.000571593,-0.000685047,0.000342691,-0.00466201,-0.00189647,-0.00166285,0.0279571,-0.00459829,-0.00987383
-0.0159807,-0.00266238,-0.00181232,0.0208787,-0.017208,-0.0119017,-0.00779381,0.0682264,-0.0093796,-0.0223666
-0.0308721,-0.00696583,-0.0105606,0.0335088,-0.0116274,-0.0223087,-0.0180914,0.101865,0.0115317,-0.04648
-0.0294804,-0.0251592,-0.0312235,0.00627109,-0.0174006,-0.019266,-0.0222477,0.135701,0.0379492,-0.0351438
-0.0185735,-0.0497552,-0.10353,-0.0886156,-0.0451638,0.0209639,0.011894,0.135612,0.109349,0.0278187
-0.00268182,-0.071014,-0.221967,-0.214192,-0.0405269,0.0875833,0.0496367,0.127572,0.189156,0.0964326
-0.00119836,-0.109601,-0.252983,-0.333981,-0.0165041,0.16057,0.0494102,0.0959413,0.243189,0.165158
0.0122261,-0.163292,-0.222178,-0.444083,0.0591539,0.223763,-0.001615,0.135069,0.266593,0.134362
0.0290369,-0.213877,-0.217276,-0.50705,0.0712491,0.254132,0.00916872,0.171318,0.229131,0.174169
0.0871879,-0.245537,-0.261799,-0.469238,0.0876338,0.285031,0.0120167,0.180313,0.150307,0.174085
0.0818435,-0.16105,-0.311094,-0.316337,0.0557385,0.244373,0.0256089,0.196881,0.1317,0.0523345
0.0371281,0.0859853,-0.317286,-0.0379466,-0.179076,0.12724,0.0590112,0.252619,0.0262798,-0.0539539
-0.0284431,0.416886,-0.194377,0.203501,-0.400648,-0.0141435,-0.0386845,0.267965,-0.127361,-0.0846953
-0.0793397,0.471942,-0.0626761,0.303544,-0.245659,-0.136936,-0.236197,0.310484,-0.216948,-0.108216
-0.0951655,0.222146,0.0362253,0.285759,0.00681222,-0.228703,-0.358143,0.419711,-0.195396,-0.0932467
0.00119103,-0.0127524,0.0205227,0.217767,0.108217,-0.30045,-0.373645,0.42081,-0.089699,0.00803821
0.120279,-0.0942838,-0.0113659,0.174934,0.0454809,-0.327768,-0.336216,0.327767,0.0197425,0.081429
0.169481,-0.139479,-0.0170858,0.141561,0.00418788,-0.304341,-0.281125,0.233588,0.099742,0.093471
0.176053,-0.164525,-0.0177819,0.10177,-0.0641771,-0.247419,-0.196465,0.152156,0.160826,0.0995639
0.170546,-0.137268,-0.0259867,-0.00403457,-0.0680869,-0.182349,-0.120341,0.10605,0.233728,0.0277408
0.214374,-0.0968183,-0.0644516,-0.0573806,-0.0532828,-0.12528,-0.0667517,0.0343821,0.251898,-0.0366897
0.202029,-0.0599675,-0.074124,-0.0583798,-0.0504567,-0.0409331,-0.0342301,-0.0277083,0.203878,-0.0601079
0.0633577,-0.0244218,-0.0332394,-0.0252284,-0.0310603,0.0463388,-0.0263233,-0.0275099,0.108184,-0.0500974
-0.0159759,-0.00681876,-0.0102866,-0.00468544,-0.017989,0.0660495,-0.0169822,-0.0100717,0.0403053,-0.0235452
-0.00540869,-0.000775763,-0.00152923,-0.000827014,-0.00403066,0.0148718,-0.00643735,-0.00235775,0.0131735,-0.00667884
-5.61092e-05,7.56055e-05,-8.55182e-05,-2.37078e-05,-0.000191759,0.00031738,-0.000819004,-0.000160599,0.00209952,-0.00115581
-4.65144e-05,-1.06805e-05,-3.21289e-05,-6.20017e-05,-0.000135412,-2.80361e-05,-2.46263e-05,0.000659491,-2.99122e-05,-0.000290179
-0.000392588,3.07378e-05,-0.000152754,-0.00016312,-0.0013136,-0.000336016,-0.000188296,0.00514053,-0.000483003,-0.00214189
-0.0051894,-0.000475558,-0.000849162,0.00123746,-0.00487153,-0.001909,-0.00124061,0.0248588,-0.00321154,-0.0083494
-0.017571,-0.00168399,-0.0020019,0.0116287,-0.0128856,-0.00670847,-0.00627735,0.0600435,-0.0097146,-0.0148293
-0.0381283,-0.00388147,-0.0198422,0.0054512,-0.0105016,-0.00677696,-0.0131152,0.0924809,0.00085634,-0.00654268
-0.0138194,-0.0138259,-0.0960113,-0.0591187,-0.0180605,0.00463897,-0.00185406,0.0991506,0.039657,0.0592432
0.0150891,-0.0337674,-0.224854,-0.170447,-0.026515,0.0548745,0.0408137,0.0921246,0.107184,0.145498
0.0327132,-0.0566491,-0.343308,-0.301111,-0.000594664,0.112606,0.0790415,0.0569004,0.190161,0.230241
0.0236714,-0.0938213,-0.359433,-0.400388,0.0643598,0.179021,0.0675322,0.028515,0.241404,0.249139
0.0226343,-0.152681,-0.361943,-0.439707,0.145508,0.233173,0.045696,0.0714529,0.26247,0.173399
0.0704193,-0.228552,-0.372322,-0.41685,0.224099,0.300038,0.0392321,0.0563399,0.163857,0.163738
0.0976926,-0.290564,-0.418568,-0.300416,0.248413,0.374437,0.0646548,0.0458742,0.113102,0.0653744
0.0408706,-0.19812,-0.46696,-0.104169,0.136409,0.33505,0.120409,0.0516275,0.201239,-0.116355
-0.0573098,0.143813,-0.453435,0.119648,-0.164224,0.182459,0.104284,0.0535587,0.231779,-0.160573
-0.182611,0.601849,-0.334523,0.274977,-0.280657,-0.0298277,-0.0790975,0.0104081,0.110236,-0.090753
-0.27159,0.603484,-0.151867,0.327307,-0.0718753,-0.200451,-0.243428,0.0924963,-0.0725112,-0.0115647
-0.297902,0.188038,-0.0303388,0.259107,0.197929,-0.298138,-0.235377,0.273221,-0.09678,0.040241
-0.192358,-0.0707049,-0.0470005,0.201185,0.214063,-0.383801,-0.204483,0.332356,-0.0318587,0.182602
-0.0169691,-0.125819,-0.0647651,0.16958,0.0794797,-0.433263,-0.180248,0.275722,0.0450745,0.251208
0.111123,-0.15957,0.00178986,0.0896836,-0.0293972,-0.445707,-0.13993,0.180591,0.120827,0.270591
0.167232,-0.141345,-0.00676311,0.00331537,-0.111078,-0.398097,-0.0694367,0.118548,0.193784,0.24384
0.205048,-0.0942986,-0.0482034,-0.0708504,-0.0947683,-0.326844,0.0205739,0.05016,0.223523,0.13566
0.271086,-0.0598911,-0.101875,-0.0797408,-0.0815869,-0.263806,0.0650812,0.00236803,0.215004,0.0333601
0.243107,-0.0321894,-0.0966063,-0.053525,-0.0571939,-0.162074,0.0626411,-0.0347506,0.156533,-0.0259429
0.0928497,-0.0122912,-0.0331427,-0.0206112,-0.0317115,-0.0570473,0.0148424,-0.0218657,0.0962348,-0.0272571
-0.00375258,-0.00250983,-0.00645123,-0.00202932,-0.0084485,0.0088898,-0.00571607,-0.00401382,0.03791,-0.0138784
-0.00231574,-0.000503353,-0.00124006,-0.000561834,-0.000857942,0.00391094,-0.00721756,-0.000552031,0.0127147,-0.00337714
-4.148e-05,0.000240293,-3.0669e-05,-2.01771e-05,-2.26188e-05,0.000108385,-0.000115953,-8.87594e-05,7.84917e-05,-0.000107513
-5.25945e-05,-2.08005e-05,-4.5247e-05,-5.70681e-05,-0.000110949,-3.13894e-05,-3.21051e-05,0.000589421,-3.6932e-05,-0.000202336
-0.000161343,-5.29681e-05,-8.07064e-05,-0.000282514,-0.00132823,-0.000260448,-0.000206755,0.0043424,-0.000178355,-0.00179108
-0.00391205,-0.000308176,-0.000437213,-0.00145924,-0.00404397,-0.00118236,-0.000768897,0.0209323,-0.00142957,-0.00739086
-0.0171897,-0.00044523,-0.00535107,-0.000971021,-0.0096232,-0.00235068,-0.00415942,0.0501597,-0.00465761,-0.0054117
-0.0332194,-0.0016242,-0.0298876,-0.0145713,-0.0105721,0.000950523,-0.012757,0.070936,-0.00616336,0.0369085
0.0110376,-0.0104704,-0.141524,-0.0766256,-0.00123212,0.0183599,0.00407841,0.0616897,0.011452,0.123234
0.0628077,-0.0261163,-0.308703,-0.167482,0.051422,0.0577116,0.06682,0.0242898,0.0374787,0.201771
0.0636409,-0.0492063,-0.402076,-0.258619,0.114244,0.11275,0.0913552,0.0123804,0.0761194,0.239411
0.0361593,-0.0902374,-0.416991,-0.303294,0.200136,0.181257,0.0789109,0.00367807,0.111584,0.198797
0.0545371,-0.161789,-0.4321,-0.278244,0.267522,0.213581,0.0712301,-0.0431925,0.133095,0.175361
0.11652,-0.269667,-0.451544,-0.216639,0.395439,0.34507,0.0658758,-0.141109,0.049211,0.106844
0.0894085,-0.339321,-0.483903,-0.091445,0.405256,0.456573,0.149652,-0.224154,0.0792546,-0.0413212
0.000293732,-0.218698,-0.48667,0.0874729,0.208187,0.399036,0.167459,-0.293171,0.249536,-0.113446
-0.16783,0.213969,-0.446871,0.220828,-0.0892805,0.225451,0.0430813,-0.372364,0.354789,0.0182265
-0.326313,0.727539,-0.36483,0.301848,-0.176227,0.00656808,-0.137466,-0.385314,0.193104,0.16109
-0.411499,0.559179,-0.195755,0.248744,0.0272757,-0.141603,-0.160734,-0.177747,0.0476608,0.204477
-0.433882,0.0657253,-0.124148,0.187966,0.276548,-0.235688,-0.0781917,0.137137,0.0136462,0.190887
-0.332839,-0.136683,-0.126821,0.119219,0.242133,-0.242239,-0.0592325,0.252056,-0.0116631,0.296069
-0.138896,-0.179861,-0.0753292,0.0706291,0.0718381,-0.257525,-0.0718514,0.183345,0.0235962,0.374055
0.0190569,-0.164995,0.00194339,-0.0175451,-0.0439797,-0.28925,-0.0693811,0.10399,0.10358,0.356581
0.0945133,-0.111344,-0.00601686,-0.0831039,-0.095981,-0.287736,0.00737029,0.0570239,0.159305,0.265969
0.191133,-0.0667069,-0.0707752,-0.111377,-0.0717078,-0.268011,0.114146,-0.0141191,0.159801,0.137618
0.296068,-0.041508,-0.141583,-0.0878972,-0.061995,-0.240315,0.159813,-0.0357595,0.11881,0.0343669
0.260732,-0.022271,-0.133226,-0.0556321,-0.0500389,-0.166271,0.150181,-0.0411785,0.0820359,-0.0243319
0.110192,-0.0102235,-0.0444709,-0.0195004,-0.0214038,-0.0763919,0.066558,-0.0237408,0.0441511,-0.0251694
0.00216842,-0.0015904,-0.000628022,-0.000932802,-0.000488044,-0.00633415,-0.000350858,-0.00159679,0.0190331,-0.00928048
-0.00110999,-8.28039e-05,0.000288158,-0.000184828,0.000691844,0.000533669,-0.00569615,-9.26099e-05,0.00849723,-0.00284451
-1.07016e-05,0.000304505,8.03623e-05,-8.904e-06,-2.90514e-05,-1.63469e-05,-8.89767e-05,3.15934e-07,-0.000193756,-3.74466e-05
-9.62018e-07,4.82266e-05,-5.90079e-06,-8.77919e-06,-2.00817e-06,-2.31333e-06,-6.28402e-06,-6.28243e-06,-7.46702e-06,-8.2296e-06
0.000133657,-7.98516e-06,-1.50189e-05,-5.33042e-05,-0.00071953,-3.55032e-05,-0.000180725,0.00150201,-3.39356e-05,-0.000589664
-0.00250257,-0.000122084,7.22025e-05,-0.00090456,-0.00308504,-0.000571975,-0.00034738,0.0156932,-0.000469626,-0.00776215
-0.014645,0.000378486,-0.00672397,-0.00216105,-0.00646923,-0.000670158,-0.00238861,0.0348776,-0.0034362,0.00123812
-0.0173966,-0.000673819,-0.0387534,-0.0203372,0.00721034,0.00228748,-0.0152362,0.0351336,-0.0156444,0.0634102
0.0528645,-0.00981041,-0.168366,-0.0688023,0.0604927,0.0102915,0.0103681,0.00515258,-0.0371376,0.144947
0.102251,-0.0249713,-0.319014,-0.135635,0.17466,0.0385053,0.0681241,-0.0347045,-0.0578855,0.188671
0.101774,-0.0505148,-0.371479,-0.187219,0.260895,0.0905604,0.0892968,-0.0541667,-0.0700405,0.190893
0.0763415,-0.0964378,-0.359016,-0.191666,0.309076,0.148795,0.0942473,-0.0744178,-0.06765,0.160726
0.116064,-0.182024,-0.340767,-0.167121,0.367371,0.229794,0.0942142,-0.165612,-0.0615364,0.109617
0.161735,-0.296308,-0.335977,-0.128619,0.505076,0.343095,0.130247,-0.336629,-0.0926992,0.0500786
0.061346,-0.362635,-0.316389,0.0231633,0.487987,0.38547,0.19156,-0.496479,0.0671112,-0.0411348
-0.101251,-0.205714,-0.278756,0.211972,0.24308,0.311555,0.129319,-0.600527,0.290709,-0.000388615
-0.298391,0.319817,-0.25665,0.270125,-0.00625887,0.150531,-0.0236657,-0.665605,0.356301,0.153797
-0.406694,0.733984,-0.218467,0.197637,-0.0865453,-0.00728001,-0.100573,-0.571285,0.182491,0.276733
-0.466409,0.442534,-0.174604,0.0902091,0.0699209,-0.12688,-0.00701619,-0.240453,0.145859,0.266841
-0.472956,-0.038835,-0.162643,0.0839571,0.28121,-0.177499,0.0458843,0.0931099,0.0631883,0.284584
-0.378408,-0.211282,-0.143339,0.0550968,0.29399,-0.138073,0.0242691,0.1731,-0.0190675,0.343714
-0.193049,-0.21056,-0.0818771,0.0108915,0.138129,-0.0863152,-0.0284205,0.0987609,-0.0316173,0.384059
-0.0496938,-0.143539,-0.0298461,-0.0590864,0.0409344,-0.102065,-0.00510121,0.0681307,-0.015789,0.296055
0.0440692,-0.0881625,-0.0451076,-0.0852516,0.0330836,-0.127039,0.0568304,0.0220535,0.0261172,0.163407
0.163471,-0.0524841,-0.102717,-0.0821095,0.0137782,-0.158624,0.171596,-0.0236733,0.0307039,0.0400589
0.277394,-0.0354478,-0.161375,-0.0765103,-0.00756482,-0.164451,0.22205,-0.0337474,0.0113642,-0.0317137
0.257876,-0.0231222,-0.145443,-0.0542258,-0.0171867,-0.131177,0.207894,-0.0345439,-0.00316351,-0.0569075
0.114782,-0.0127324,-0.0623494,-0.0195497,-0.0144365,-0.0643505,0.114089,-0.0210745,0.00237253,-0.036751
0.00320701,-0.00333039,0.00705699,-0.00195136,0.00236886,-0.00854436,0.00806751,-0.00131697,0.00559086,-0.0111481
-0.000237503,-0.000638005,0.00402528,-0.000195335,0.000443279,-0.000393691,-0.00385093,-0.000142877,0.00294164,-0.00195186
-1.85988e-05,-2.25773e-05,0.000964333,-0.00029727,-0.000101722,-8.97276e-06,-0.000506664,-7.01272e-06,3.13543e-05,-3.28698e-05
-7.91388e-06,-1.68029e-08,-1.60177e-07,-0.000274329,-9.92863e-07,0.00039877,-6.20204e-06,-1.20107e-06,-1.2213e-05,-9.57414e-05
-3.07615e-05,-4.8375e-07,-0.000756317,0.00099779,-0.000284848,-3.124e-05,-1.5656e-06,0.000383274,-0.0001513,-0.000124548
-0.00174426,4.19026e-05,-0.00051364,0.000154132,-0.00161993,-0.000394396,-0.000156685,0.00893742,-0.000293648,-0.00441089
-0.0127459,0.00136643,-0.00553398,0.000954419,0.00110587,-0.00145036,-0.00284892,0.0191492,-0.00370891,0.00371218
-0.00741486,-0.000259415,-0.0307333,-0.0146811,0.0365395,-0.00487089,-0.024652,0.0154969,-0.0230459,0.0536212
0.0956609,-0.0116254,-0.141353,-0.0564805,0.122431,-0.0192293,0.00111476,-0.0112674,-0.0659233,0.0866716
0.144846,-0.0295889,-0.236511,-0.113855,0.26607,-0.0195969,0.0581562,-0.0613211,-0.130037,0.121838
0.139826,-0.0569734,-0.226599,-0.14053,0.348375,0.00947763,0.0908354,-0.0960104,-0.182987,0.114584
0.12891,-0.10764,-0.16226,-0.143234,0.369257,0.0871828,0.0962292,-0.157897,-0.217317,0.106769
0.175302,-0.194036,-0.11784,-0.126196,0.373271,0.195317,0.135237,-0.278526,-0.231763,0.069233
0.182091,-0.29844,-0.0760339,-0.107737,0.450401,0.264096,0.180193,-0.452506,-0.16709,0.0250257
0.00574897,-0.340092,-0.0214682,0.0242479,0.406823,0.228135,0.225595,-0.575343,0.0544194,-0.00806666
-0.214967,-0.107319,0.0189499,0.170645,0.257671,0.15564,0.0890392,-0.651083,0.262074,0.0193502
-0.378686,0.421158,0.0115536,0.151955,0.0680384,0.0288547,-0.054359,-0.668633,0.351725,0.0683935
-0.453889,0.666347,-0.0470713,0.0621878,-0.00412958,-0.096351,0.00715311,-0.478864,0.247535,0.097082
-0.48898,0.328005,-0.0972765,-0.00905507,0.117276,-0.174996,0.112684,-0.119497,0.166356,0.165485
-0.470322,-0.13495,-0.0957498,-0.00658422,0.341885,-0.192507,0.117979,0.111599,0.0456242,0.283026
-0.334635,-0.291552,-0.11373,0.0368274,0.396003,-0.156666,0.022551,0.152711,-0.0374194,0.325911
-0.167014,-0.225389,-0.0719615,0.0389464,0.271382,-0.0839801,-0.00748816,0.147453,-0.140546,0.238598
-0.0330831,-0.146497,-0.0715282,0.0187218,0.201545,-0.0321204,0.0232512,0.117841,-0.171587,0.0934565
0.0554208,-0.0925222,-0.0840936,-0.000831486,0.135623,-0.0345982,0.10834,0.0779858,-0.140173,-0.0251506
0.143197,-0.060282,-0.129853,-0.00735306,0.0702959,-0.0714129,0.204798,0.037261,-0.0889519,-0.0976987
0.217733,-0.0413426,-0.151993,-0.0418772,0.0305749,-0.098325,0.244339,0.0108837,-0.0586828,-0.11131
0.228853,-0.0282663,-0.136016,-0.0441615,0.0175113,-0.0853816,0.204156,-0.0139709,-0.0473653,-0.0953589
0.110344,-0.0151614,-0.0606491,-0.0180985,0.000815743,-0.0462596,0.113214,-0.0130933,-0.0230798,-0.0480323
0.00313081,-0.00643574,0.0123978,-0.00357851,-0.000369047,-0.00728053,0.0129454,0.00350485,-0.00342537,-0.0108896
-0.000301447,-0.00103953,0.0152336,-0.00142606,-0.000683545,-0.000281924,-0.00972241,-9.65945e-05,-0.00098819,-0.000693897
-1.04056e-05,-1.5537e-05,0.000566966,-0.000223275,-1.41759e-05,-9.18186e-06,-0.000257044,-2.70288e-06,-2.91927e-05,-5.45108e-06
-4.21694e-06,-3.76405e-08,-7.25418e-08,-9.05615e-05,-3.89328e-06,0.000130237,-2.55026e-06,1.40774e-05,-5.77728e-06,-3.72054e-05
-4.54649e-05,-7.42159e-07,-0.0012323,0.00170354,-1.22572e-05,-7.11268e-05,-2.42977e-06,-1.23361e-05,-0.000322409,-4.47944e-06
-0.000953464,0.000490582,-0.00156871,0.00380249,-0.000158877,-0.000610322,-0.000142053,0.00431224,-0.000785386,-0.0043865
-0.0147758,0.000970201,0.00458833,0.00756681,0.0055591,-0.00331074,-0.00700815,0.0150059,-0.00498346,-0.0036122
0.0127708,-0.00199805,0.00424412,-0.00682992,0.0340096,-0.018659,-0.0343857,0.00337676,-0.0234867,0.030958
0.135631,-0.0159737,-0.0383221,-0.0398165,0.131173,-0.0612032,-0.0215818,-0.0401782,-0.0763262,0.0265973
0.16614,-0.0368423,-0.0719514,-0.0848722,0.263718,-0.0950371,0.0456944,-0.0766737,-0.145781,0.0356047
0.174398,-0.0662963,-0.054851,-0.132219,0.350753,-0.0987968,0.0892641,-0.137973,-0.201578,0.0772977
0.178162,-0.118277,0.0118534,-0.176975,0.378878,-0.0272022,0.105213,-0.234229,-0.21646,0.099035
0.230117,-0.197062,0.058313,-0.191617,0.317132,0.0545303,0.164104,-0.31833,-0.190572,0.0733853
0.172911,-0.279294,0.12125,-0.161678,0.267988,0.0815674,0.239017,-0.416409,-0.095141,0.0697894
-0.0913407,-0.222238,0.158421,-0.0456024,0.256572,0.0560983,0.250901,-0.476758,0.0727617,0.0411853
-0.325661,0.0379319,0.187557,0.0453735,0.200092,-0.00534674,0.0805128,-0.511908,0.276992,0.0144562
-0.458281,0.455696,0.171235,0.0468807,0.116731,-0.107627,0.00653236,-0.47817,0.310034,-0.0630329
-0.508928,0.596296,0.0428844,-0.0117541,0.1293,-0.198773,0.103325,-0.261444,0.191173,-0.08208
-0.510301,0.179084,-0.0147944,-0.0638242,0.279193,-0.223657,0.133502,0.0126698,0.109892,0.0982354
-0.434053,-0.22872,-0.0157403,-0.06127,0.445826,-0.198712,0.071714,0.147932,0.0127706,0.260252
-0.262108,-0.317288,-0.0594492,0.022512,0.427587,-0.15677,-0.00243234,0.197101,-0.107619,0.258467
-0.0724339,-0.23327,-0.0961988,0.0918569,0.310781,-0.0765702,-0.00181419,0.201401,-0.190115,0.0663641
0.0289252,-0.1622,-0.0881451,0.116297,0.223639,-0.000167846,0.0466689,0.167519,-0.245704,-0.0868319
0.0707525,-0.107438,-0.0914868,0.114003,0.113979,-0.00565986,0.141059,0.126878,-0.210627,-0.151459
0.110188,-0.0713339,-0.105339,0.0758006,0.0636086,-0.0326087,0.218644,0.0691031,-0.147598,-0.180465
0.172923,-0.0492547,-0.114573,0.0112347,0.048851,-0.0474905,0.205582,0.0120648,-0.0870652,-0.152272
0.183631,-0.0320789,-0.0924809,-0.0254509,0.0238025,-0.0452932,0.161792,-0.0178008,-0.054217,-0.101903
0.0900353,-0.0181329,-0.0288713,-0.0163618,-0.00401027,-0.0270047,0.094941,-0.0119499,-0.0310804,-0.047565
0.00142273,-0.0061206,0.0262518,-0.00763256,-0.00577342,-0.00318592,0.0176829,-0.00042678,-0.010003,-0.0122151
-0.000341337,-0.00172801,0.0206483,-0.00176048,0.000400285,-0.000292072,-0.0129749,-0.000428395,-0.00247649,-0.0010469
-3.88619e-05,-6.62234e-05,0.00172865,-5.55087e-05,-4.33407e-05,-8.47225e-05,-0.0012435,-1.1566e-05,-0.000128329,-5.65935e-05
-9.28955e-06,-1.8365e-07,-1.14825e-07,-4.21182e-06,-2.03896e-05,-1.904e-06,-2.96862e-06,8.26896e-05,-1.01619e-05,-3.34656e-05
-2.74222e-05,2.25423e-05,-0.000696327,0.00148821,-6.2931e-06,-3.70757e-05,-4.67665e-06,-0.000195068,-0.000175093,-0.000368796
-0.00135561,0.000545188,-0.00250838,0.00986809,-0.00142593,-0.00109253,-0.00029333,0.000586967,-0.00192819,-0.00239628
-0.0179857,-0.000628923,0.0146303,0.0224507,-0.00184477,-0.00326388,-0.00997403,0.00693238,-0.00473446,-0.0055816
0.0194975,-0.00444726,0.0521662,0.015047,0.00511535,-0.0187504,-0.0426264,-0.00460196,-0.0291036,0.00770358
0.154233,-0.0217831,0.0731516,-0.0122934,0.0791934,-0.0857947,-0.0449768,-0.0458157,-0.0800607,-0.0158538
0.198035,-0.0502361,0.0960229,-0.0658892,0.193788,-0.139566,0.0233408,-0.0777968,-0.136211,-0.0414872
0.18568,-0.0865192,0.0868463,-0.130688,0.284307,-0.18881,0.094378,-0.144638,-0.130358,0.0298014
0.208812,-0.141452,0.101298,-0.233747,0.315443,-0.203351,0.113391,-0.243399,-0.0471843,0.130187
0.231008,-0.191485,0.146548,-0.317031,0.238356,-0.174176,0.184645,-0.2994,0.0219285,0.159607
0.132382,-0.189223,0.173971,-0.324824,0.134348,-0.141449,0.291223,-0.336685,0.0704099,0.189848
-0.147051,-0.0961196,0.204175,-0.241284,0.124325,-0.117326,0.276202,-0.348993,0.191992,0.154077
-0.37725,0.122486,0.242985,-0.16902,0.15766,-0.126528,0.0915681,-0.321475,0.332269,0.0473053
-0.472791,0.475318,0.194017,-0.142611,0.189605,-0.17424,0.0490483,-0.241091,0.220621,-0.0978769
-0.499459,0.506246,0.0799321,-0.16638,0.308524,-0.209344,0.110062,-0.0659268,0.037685,-0.10134
-0.465068,0.0379796,0.0633074,-0.160964,0.441083,-0.187609,0.0632182,0.133803,-0.00275804,0.0770069
-0.334941,-0.274684,0.0645425,-0.0647527,0.45007,-0.132097,-0.040812,0.155794,-0.0338324,0.210713
-0.129405,-0.318889,-0.000803569,0.0377354,0.354887,-0.0662916,-0.0540201,0.177488,-0.105807,0.105105
0.0304979,-0.240807,-0.0756044,0.147465,0.240614,-0.0112138,0.0298828,0.146634,-0.204579,-0.0628896
0.0697435,-0.165279,-0.0712835,0.177657,0.117899,0.0378552,0.0998781,0.113048,-0.219284,-0.160234
0.0816203,-0.111493,-0.0364912,0.15854,0.0732167,0.0151154,0.132317,0.0533359,-0.179711,-0.18645
0.107214,-0.0732778,-0.0218916,0.135615,0.0506432,-0.00674494,0.145825,0.0114748,-0.151335,-0.197521
0.139089,-0.0500391,-0.0210011,0.062955,0.00130424,-0.0114445,0.138288,-0.0301979,-0.0905147,-0.138439
0.1299,-0.0336314,-0.00151277,-0.0101491,-0.0106959,-0.0110711,0.102892,-0.0319304,-0.0360959,-0.0977053
0.0583492,-0.0229031,0.0390485,-0.0159528,-0.0118636,-0.00774769,0.0513495,-0.0165699,-0.0240113,-0.0496988
-0.00362812,-0.00975198,0.0696391,-0.00923198,-0.00903386,-0.00166399,-0.00346758,-0.00470658,-0.0135955,-0.0145595
-0.00206045,-0.00143197,0.0283367,-0.00195295,-8.92336e-05,-0.000697825,-0.0157548,-0.000983451,-0.00355325,-0.00181282
-9.98423e-05,-7.10984e-05,0.00231738,-6.05329e-05,-0.000147376,-0.000169871,-0.00149703,-6.24671e-05,-0.00013232,-7.68419e-05
0.0,0.0,0.0,0.0,0.0,0.0,0.0,0.0,0.0,0.0
-3.44914e-05,5.95498e-05,-0.000390237,0.000641195,-2.26452e-05,-2.18427e-05,-3.14662e-05,-2.13602e-05,-0.000111661,-6.70413e-05
-0.00209946,-0.000166978,-0.00249725,0.0122162,-0.000353125,-0.00123743,-0.000491652,-0.000722593,-0.00169446,-0.00295328
-0.0233552,-0.00113649,0.0248153,0.053306,-0.0166878,-0.00314072,-0.0136972,-0.000943372,-0.00969655,-0.00946402
0.0158084,-0.00716782,0.10957,0.0549353,-0.0249163,-0.00984257,-0.0586146,-0.0165568,-0.0401203,-0.0230949
0.150767,-0.0336002,0.190416,0.0151528,-0.00757696,-0.0510233,-0.0752021,-0.0548212,-0.0802017,-0.0539099
0.205301,-0.0761591,0.199676,-0.0550298,0.0844069,-0.0642209,-0.0166393,-0.0936382,-0.104534,-0.0791629
0.199372,-0.118903,0.164463,-0.128311,0.170969,-0.165331,0.0772256,-0.142907,-0.0224401,-0.0341376
0.230042,-0.155506,0.143303,-0.268143,0.20979,-0.270011,0.139238,-0.200058,0.131709,0.0396365
0.239457,-0.150026,0.164038,-0.425328,0.158687,-0.298322,0.208554,-0.239058,0.231484,0.110515
0.137791,-0.0693241,0.191097,-0.491586,0.0711204,-0.288658,0.338342,-0.269176,0.226123,0.154271
-0.133197,0.0122897,0.249849,-0.463035,0.0517233,-0.244102,0.33186,-0.24927,0.317179,0.126703
-0.331894,0.228542,0.276958,-0.425061,0.107452,-0.237598,0.170314,-0.17796,0.365749,0.0234999
-0.41221,0.460301,0.216359,-0.386944,0.224138,-0.236206,0.0874283,-0.0369941,0.151541,-0.0674125
-0.429713,0.357462,0.156479,-0.338319,0.360949,-0.206869,0.0610824,0.11365,-0.0438866,-0.030835
-0.337813,-0.0364974,0.156978,-0.20126,0.391299,-0.135679,-0.018069,0.162392,-0.0980766,0.116725
-0.171823,-0.260932,0.117896,-0.0214543,0.304898,-0.0359178,-0.0676727,0.0955863,-0.0479641,0.0873837
-0.00187762,-0.302392,0.0488266,0.105295,0.155197,0.0294054,0.00866972,0.0754363,-0.0935081,-0.025053
0.0754343,-0.240157,0.00537292,0.163842,0.0608088,0.0578762,0.105069,0.0313941,-0.14279,-0.116851
0.0696003,-0.157569,-0.00316124,0.212749,-0.0338342,0.0707642,0.140458,-0.00534691,-0.143363,-0.150298
0.0673511,-0.104066,0.0550592,0.172979,-0.0532545,0.040761,0.135144,-0.0488207,-0.105767,-0.159387
0.0823681,-0.0736955,0.0656153,0.154886,-0.0501314,0.0271756,0.121157,-0.0644042,-0.101864,-0.161107
0.102272,-0.0542897,0.0830124,0.0933403,-0.0768467,0.00543676,0.0937168,-0.0533341,-0.0684431,-0.124864
0.0723661,-0.0414875,0.104206,0.00367192,-0.0530005,0.0169816,0.0448338,-0.0349618,-0.0310023,-0.0816072
0.0317011,-0.0304844,0.135099,-0.0285676,-0.0289325,0.00789381,-0.00798348,-0.0164721,-0.0198569,-0.0423972
-0.00439091,-0.0133907,0.106301,-0.0123668,-0.0146755,-0.00273939,-0.0269546,-0.00558003,-0.015124,-0.0110793
-0.00179557,-0.000879353,0.0278607,-0.00164347,-0.00152972,-0.000514683,-0.0149493,-0.000818448,-0.00354537,-0.00218475
-0.0001474,-5.91476e-05,0.00182911,-2.74674e-05,-0.000303804,-5.23116e-05,-0.000947923,-9.18532e-05,-7.96593e-05,-0.000119548
-7.42235e-06,-1.0938e-05,-4.94848e-06,-8.4854e-05,-0.000345045,-4.88549e-05,-9.5402e-06,0.000400748,-4.07605e-05,0.000151615
-7.76073e-06,4.57127e-06,-5.31267e-05,0.000111796,-7.35812e-06,-8.21815e-06,-8.03993e-06,-8.08686e-07,-1.43347e-05,-1.67202e-05
-0.00263098,-0.000425969,-0.0069375,0.0181073,0.000321011,-0.00146967,-0.000566309,-0.000958677,-0.00235637,-0.00308288
-0.0307697,-0.00191398,0.0291223,0.0850094,-0.0190339,-0.00503177,-0.0163983,-0.0040059,-0.0204733,-0.0165049
0.00848767,-0.0141706,0.145098,0.109576,-0.0592879,0.0022379,-0.0674916,-0.0256139,-0.0577894,-0.0410459
0.119164,-0.0502391,0.255691,0.0759241,-0.0762352,0.00514807,-0.104066,-0.0735512,-0.071697,-0.0801391
0.174977,-0.107077,0.26584,0.010826,-0.0578162,0.0549433,-0.0638331,-0.119117,-0.0439388,-0.114805
0.189906,-0.138334,0.240854,-0.0771342,-0.0116296,-0.0352152,0.0365489,-0.14954,0.0706732,-0.12613
0.220787,-0.124565,0.185834,-0.212621,0.00203057,-0.165172,0.137175,-0.181385,0.224228,-0.0863113
0.260443,-0.060716,0.192416,-0.370326,-0.0389142,-0.269092,0.237502,-0.209434,0.296846,-0.0387244
0.18613,0.00843275,0.26039,-0.448087,-0.116548,-0.336354,0.382121,-0.240159,0.307006,-0.00293193
-0.033107,0.111611,0.305161,-0.453858,-0.124763,-0.320186,0.414466,-0.194187,0.331537,-0.0366734
-0.21633,0.262695,0.343422,-0.45369,-0.0217729,-0.27222,0.295028,-0.0847068,0.247676,-0.100101
-0.278769,0.344147,0.307441,-0.438426,0.0947795,-0.194603,0.13455,0.0993684,0.0220813,-0.0905692
-0.265971,0.227584,0.225546,-0.373713,0.172634,-0.109632,0.048009,0.204676,-0.132497,0.00336101
-0.169014,-0.0550613,0.158283,-0.175854,0.158651,-0.0253458,0.0249086,0.115893,-0.102445,0.0699826
-0.0432393,-0.215161,0.124334,0.053466,0.0804127,0.0336912,0.0694043,0.0159977,-0.0901135,-0.0287921
0.0496205,-0.2472,0.0781306,0.149967,-0.0382795,0.0825659,0.13529,-0.0388327,-0.0773101,-0.0939515
0.0651725,-0.216379,0.0699614,0.198868,-0.115968,0.077517,0.181016,-0.0687509,-0.0738535,-0.117583
0.0420896,-0.146594,0.0909485,0.225885,-0.153159,0.0710507,0.153962,-0.102325,-0.079001,-0.102858
0.0293901,-0.108686,0.133113,0.196426,-0.150283,0.0542262,0.134333,-0.12193,-0.0500688,-0.116521
0.0531981,-0.0845663,0.15924,0.16482,-0.141505,0.0436086,0.108117,-0.112319,-0.0671804,-0.123414
0.0599161,-0.0695226,0.199596,0.078233,-0.123256,0.0345197,0.0445251,-0.0806303,-0.0457865,-0.0975948
0.0296042,-0.0539793,0.242604,-0.0110628,-0.073118,0.0305357,-0.0132652,-0.0515843,-0.0336443,-0.0660904
0.00821561,-0.0369868,0.217325,-0.0412193,-0.0340181,0.0165273,-0.043518,-0.0253428,-0.0253195,-0.0356634
-0.00620872,-0.0136104,0.106528,-0.0135411,-0.0143502,-0.00185773,-0.0271478,-0.00658608,-0.015345,-0.00788079
-0.00109738,-0.000460453,0.0176552,-0.00162551,-0.00120204,-0.000314299,-0.00878896,-0.000504532,-0.00285101,-0.000810977
-0.000449073,-5.13814e-05,0.00281141,-0.000134884,-1.64028e-05,-0.000121514,-0.00195677,-8.34163e-06,-4.22551e-05,-3.07954e-05
-3.84773e-09,4.95702e-06,-2.54828e-06,-2.37207e-07,-5.38021e-09,-8.5e-08,-1.03858e-07,-3.194e-08,-1.90655e-06,-3.49453e-08
0.000310987,1.67606e-05,-0.000114602,6.91838e-05,-0.000118072,-3.66159e-05,-0.000110532,0.000719422,-5.00558e-05,-0.000686476
-0.00297175,-0.000711734,-0.00964557,0.0272957,0.000128274,-0.00274488,-0.0010174,-0.00149711,-0.00379199,-0.00504352
-0.0291886,-0.00364135,0.0278946,0.112567,-0.017926,-0.015519,-0.0157673,-0.00808171,-0.0301955,-0.0201416
0.000496015,-0.0216001,0.131038,0.154908,-0.0631315,0.00535829,-0.0619693,-0.0338847,-0.0655131,-0.0457014
0.0865754,-0.0670222,0.229299,0.140472,-0.111128,0.0655668,-0.10949,-0.0877345,-0.0594896,-0.0870492
0.140326,-0.119695,0.289606,0.0832415,-0.16358,0.171011,-0.110176,-0.138273,-0.0142156,-0.138245
0.150679,-0.127686,0.294112,0.0163435,-0.206195,0.132519,-0.0306868,-0.165498,0.114671,-0.178258
0.190311,-0.0659838,0.259803,-0.0841795,-0.234907,0.0465227,0.0803164,-0.187547,0.201351,-0.205686
0.256809,0.0099406,0.262834,-0.190529,-0.26697,-0.0800794,0.212349,-0.215759,0.238789,-0.227386
0.229481,0.0459774,0.297609,-0.251136,-0.290459,-0.169171,0.385306,-0.195072,0.190982,-0.243517
0.0890422,0.117235,0.312841,-0.288912,-0.270395,-0.168665,0.459215,-0.129129,0.13065,-0.251883
-0.0424423,0.153759,0.281595,-0.300417,-0.207191,-0.127999,0.38448,0.0102859,0.0680018,-0.220071
-0.102666,0.176,0.221395,-0.275046,-0.0917343,-0.0442665,0.221745,0.151586,-0.13518,-0.121835
-0.0864981,0.0834376,0.13371,-0.208675,-0.020721,0.0178507,0.145211,0.186241,-0.20978,-0.0407767
-0.0485573,-0.0508928,0.0836015,-0.0633116,-0.033534,0.0587379,0.174755,0.0478158,-0.138409,-0.0302059
0.017882,-0.146597,0.0634199,0.0941321,-0.061617,0.0605481,0.221497,-0.0688158,-0.0902112,-0.0902377
0.0387778,-0.191628,0.0813192,0.173705,-0.0930616,0.0743925,0.232522,-0.124665,-0.0735356,-0.117826
0.0168978,-0.184293,0.105784,0.209836,-0.132302,0.0740207,0.201599,-0.151273,-0.042704,-0.0975647
-0.00734099,-0.138076,0.140615,0.223147,-0.156114,0.0607919,0.161973,-0.162703,-0.0419763,-0.0803163
0.0134691,-0.116106,0.18132,0.189268,-0.160706,0.0521785,0.116483,-0.173157,-0.0281009,-0.0746491
0.0286415,-0.0909472,0.235611,0.13496,-0.133889,0.0636769,0.0463719,-0.146612,-0.0433023,-0.0945115
0.0244207,-0.070348,0.283961,0.0198192,-0.111833,0.0544926,-0.0192874,-0.0954221,-0.0170105,-0.0687929
0.00036544,-0.0490007,0.291424,-0.0340564,-0.0607829,0.034173,-0.0631575,-0.0539782,-0.0204533,-0.0445332
-0.00565323,-0.0294448,0.215769,-0.0398225,-0.0299284,0.013947,-0.0523224,-0.0220485,-0.0276336,-0.0228624
-0.00519207,-0.0110083,0.0938969,-0.0131932,-0.00844449,-0.0012503,-0.0304737,-0.0042972,-0.0152902,-0.00474741
-0.000945171,-0.000801281,0.0180188,-0.0026732,-0.000440833,-0.000220408,-0.00900035,-0.000392142,-0.00287031,-0.000675082
-0.000112637,-3.4651e-05,0.00149688,-0.000102901,-5.86124e-06,-3.90403e-05,-0.00117649,-3.6096e-06,-1.55271e-05,-6.16126e-06
0.0,0.0,0.0,0.0,0.0,0.0,0.0,0.0,0.0,0.0
0.000777285,-2.27133e-05,-0.00025917,0.000235221,-1.68173e-05,-0.000107526,-0.00027967,3.84692e-06,-7.78062e-05,-0.000252651
-0.00327961,-0.00105059,-0.00619769,0.0237736,-0.000331752,-0.00155044,-0.00138557,-0.00220485,-0.00380441,-0.00396873
-0.0285943,-0.00560765,0.0248284,0.121964,-0.0155227,-0.0178556,-0.0142144,-0.0104162,-0.0352053,-0.0193762
-0.00827824,-0.0218579,0.113651,0.192863,-0.055066,-0.0174066,-0.0558076,-0.0390186,-0.0679127,-0.0411666
0.0691911,-0.0562002,0.177205,0.206776,-0.111912,0.0364794,-0.108716,-0.0825828,-0.0475608,-0.0826807
0.116143,-0.0824005,0.247457,0.162923,-0.194895,0.169252,-0.135704,-0.139465,-0.0011858,-0.142123
0.126201,-0.0710508,0.284682,0.110339,-0.273589,0.221935,-0.118311,-0.183821,0.0997136,-0.1961
0.140472,-0.00438991,0.289254,0.0629096,-0.32604,0.238686,-0.0349028,-0.213357,0.0946452,-0.247278
0.213863,0.0413536,0.260775,0.0132228,-0.351257,0.179645,0.0959724,-0.208034,0.0650604,-0.310603
0.24568,0.0528253,0.211149,-0.0600428,-0.333339,0.0946739,0.271569,-0.151649,0.0124342,-0.3433
0.167876,0.0428856,0.187035,-0.0982033,-0.289054,0.0684631,0.367039,-0.0753598,-0.0582066,-0.312475
0.0597793,7.47833e-05,0.0923358,-0.124734,-0.234578,0.055445,0.394548,0.0660755,-0.0669895,-0.241957
-0.00831176,-0.0193197,0.0305603,-0.0925346,-0.19085,0.0766748,0.367356,0.119537,-0.175699,-0.107414
-0.021843,-0.0213151,0.00813319,-0.0397312,-0.132897,0.0533823,0.35021,0.0921665,-0.206532,-0.0815731
0.0160038,-0.0557994,0.0074852,0.0194744,-0.102029,0.0413572,0.337272,-0.0269774,-0.143987,-0.0928003
0.020191,-0.0734126,0.042341,0.115805,-0.0732427,0.0568736,0.30647,-0.114869,-0.139711,-0.140446
0.0127079,-0.113564,0.0741976,0.173832,-0.0559969,0.0698679,0.2328,-0.167292,-0.0914128,-0.135139
-0.0247254,-0.149488,0.131231,0.196091,-0.0917692,0.0821884,0.191793,-0.188511,-0.0369477,-0.109862
-0.0227395,-0.141372,0.189992,0.169946,-0.113905,0.0745283,0.111375,-0.193822,-0.00519662,-0.0688079
-0.0032468,-0.117499,0.222787,0.144254,-0.114297,0.0875173,0.0274669,-0.181578,-0.0212776,-0.0441282
0.013146,-0.0933665,0.275326,0.0548756,-0.0886727,0.078843,-0.0362647,-0.129069,-0.0162065,-0.0586113
-0.000332596,-0.066964,0.306385,-0.0395353,-0.0720738,0.0708726,-0.0677808,-0.0853385,-0.000956496,-0.0442764
-0.012382,-0.039378,0.263254,-0.0578069,-0.0400895,0.0315158,-0.0579946,-0.0464982,-0.0164774,-0.0241431
-0.0107597,-0.0236973,0.170623,-0.0360129,-0.0179097,0.00762751,-0.0382561,-0.0163709,-0.0273633,-0.00788052
-0.00283715,-0.00610868,0.0532519,-0.00894624,-0.00592741,-0.0010934,-0.0154734,-0.0029874,-0.0105628,0.00068459
-0.000413539,0.000229371,0.00835131,-0.0016732,-0.000386824,-3.2959e-05,-0.00249134,-0.000310736,-0.00257929,-0.000692796
-8.5482e-07,1.73292e-05,-7.21694e-06,-1.6003e-06,-9.7332e-07,2.06656e-05,-3.49009e-07,-2.58648e-07,-2.58604e-05,-8.81456e-07
-4.96997e-09,8.35483e-06,-2.46597e-06,-1.35561e-06,-2.9e-08,-1.42671e-07,-1.30618e-07,-3.89492e-07,-3.72924e-06,-1.07246e-07
-6.61342e-05,3.47766e-07,0.000158305,0.000203334,-3.07991e-06,-6.60449e-05,-9.34894e-05,-1.7309e-05,-4.70135e-05,-6.89167e-05
-0.00301154,-0.000626638,-0.000170124,0.0159585,-0.000642946,-0.000808288,-0.000957832,-0.00293472,-0.00413592,-0.00267054
-0.0223316,-0.00483162,0.0166462,0.0968995,-0.010946,-0.00783026,-0.0100404,-0.0128423,-0.0297302,-0.0149932
-0.0177505,-0.0114702,0.0734278,0.174442,-0.032651,-0.0121135,-0.0408551,-0.0345444,-0.0669555,-0.0315296
0.0404015,-0.016916,0.108548,0.223822,-0.0768854,-0.0050214,-0.0879839,-0.0705579,-0.0437232,-0.0716843
0.0912305,0.000137694,0.155027,0.223933,-0.15099,0.078344,-0.143555,-0.11434,-0.00862787,-0.13116
0.112115,0.0175034,0.198492,0.180292,-0.219006,0.175474,-0.156021,-0.160648,0.0434719,-0.191674
0.116816,0.0520698,0.218235,0.167231,-0.256896,0.238583,-0.129959,-0.174458,0.0161222,-0.247743
0.173315,0.0411591,0.198878,0.115744,-0.270377,0.261565,-0.0619406,-0.145273,-0.0210752,-0.291996
0.225965,-0.00201772,0.13777,0.0525328,-0.263661,0.234232,0.0539945,-0.0944138,-0.0378967,-0.306504
0.213762,-0.0901786,0.0623879,-0.00707567,-0.219864,0.177796,0.196369,-0.0166801,-0.0501179,-0.266399
0.121549,-0.148841,-0.0136369,-0.016101,-0.165061,0.116745,0.296659,0.0304484,-0.0302697,-0.191492
0.06008,-0.150695,-0.0636241,0.00514061,-0.16177,0.0718092,0.364689,0.0462288,-0.02935,-0.142509
0.0395101,-0.0616642,-0.0785849,0.0265113,-0.127417,0.0356156,0.354443,0.0139064,-0.0719603,-0.13036
0.0312366,-0.0052381,-0.0256565,0.0573857,-0.0790519,0.0438392,0.27885,-0.0357765,-0.0907204,-0.174868
0.0179721,0.0207611,0.0343363,0.10964,-0.045902,0.0785881,0.185657,-0.103215,-0.114979,-0.182859
-0.0121157,-0.0198187,0.0848818,0.118062,-0.00549846,0.104223,0.119205,-0.146433,-0.0727765,-0.169729
-0.0325342,-0.0891025,0.14857,0.135497,-0.0129079,0.0942988,0.0486521,-0.175338,0.00438421,-0.121521
-0.0346041,-0.111795,0.20905,0.115022,-0.0328959,0.094056,-0.0196958,-0.178334,0.021242,-0.0620459
-0.0230813,-0.102006,0.229956,0.0590783,-0.0519131,0.0973092,-0.0589737,-0.148456,0.00897571,-0.0108899
-0.0234635,-0.0754353,0.260401,-0.024997,-0.0420895,0.092375,-0.0703687,-0.0982117,-0.0087003,-0.00950948
-0.0227124,-0.0503034,0.248358,-0.0665662,-0.0362049,0.0634274,-0.0585323,-0.0645438,-0.00430962,-0.00861261
-0.017146,-0.0289903,0.192372,-0.0581786,-0.0179205,0.0243205,-0.0349002,-0.0347155,-0.022857,-0.00198379
-0.00816013,-0.0125689,0.100665,-0.0267138,-0.00934743,0.000962105,-0.0159934,-0.0124392,-0.0207837,0.00437987
-0.00147081,-0.00354462,0.0290963,-0.00733985,-0.00419369,-0.000791883,-0.00602956,-0.00225161,-0.00544328,0.00196902
-0.000215288,-0.000299508,0.00395691,-0.00143304,-0.000210427,2.13484e-05,-0.000634409,-0.000165157,-0.000740117,-0.000280314
1.71372e-06,-7.51496e-13,-1.14845e-07,-3.82969e-08,-3.31122e-10,-7.67206e-07,-5.67071e-08,-4.83109e-10,-7.35108e-07,-7.4171e-10
-4.81466e-09,8.09375e-06,-2.38891e-06,-1.31324e-06,-2.80938e-08,-1.38212e-07,-1.26537e-07,-3.7732e-07,-3.6127e-06,-1.03894e-07
-4.64672e-07,2.46656e-06,-1.23983e-06,5.97589e-06,-3.12767e-08,-1.94343e-06,-4.68276e-08,-4.39966e-07,-2.03052e-06,-2.24586e-06
-0.00138117,-0.00020909,0.00177396,0.0119335,-0.000458522,-0.00128534,-0.00039251,-0.00338677,-0.00352564,-0.00306842
-0.0133169,-0.00212542,0.0095983,0.0637001,-0.0050825,-0.0075856,-0.00404576,-0.00994395,-0.0208778,-0.0103204
-0.0247295,-0.000959908,0.0400874,0.130577,-0.0166289,-0.00571668,-0.0187999,-0.0209486,-0.0596376,-0.0232434
0.00896279,0.0374313,0.0492717,0.187335,-0.044763,-0.0191981,-0.0518156,-0.0378234,-0.0698607,-0.0595402
0.062793,0.067851,0.062505,0.225433,-0.0916446,-0.00990353,-0.10038,-0.0629058,-0.0418667,-0.111881
0.105968,0.0905292,0.0864168,0.214863,-0.138083,0.04435,-0.150661,-0.0728596,-0.0105399,-0.169984
0.147876,0.0862858,0.107146,0.171662,-0.160748,0.12561,-0.189041,-0.0666528,-0.0124788,-0.209658
0.169147,0.0388463,0.100181,0.173367,-0.169177,0.189807,-0.206579,-0.0485261,-0.0263043,-0.220762
0.208251,-0.0626089,0.0709447,0.149398,-0.16627,0.192434,-0.188824,-0.0166317,0.0216836,-0.208377
0.242417,-0.185368,0.00653681,0.113216,-0.129858,0.177758,-0.153986,-0.00506652,0.128338,-0.193988
0.225779,-0.24803,-0.0738567,0.0691105,-0.10696,0.160411,-0.0829854,-0.00550664,0.229401,-0.167363
0.207102,-0.206052,-0.131215,0.0516348,-0.0927663,0.131026,-0.0505911,0.020514,0.26313,-0.192781
0.13782,-0.0361057,-0.148387,0.0443923,-0.0855774,0.11069,-0.0567945,0.0350607,0.206562,-0.207662
0.0937103,0.0814249,-0.116238,0.0527181,-0.0215096,0.119167,-0.0768068,0.00860514,0.106973,-0.248044
0.0425682,0.135577,-0.0524893,0.0568259,0.000634229,0.133139,-0.0952358,-0.0538897,0.0399608,-0.20709
-0.00430521,0.083604,0.0161862,0.0487021,0.0547531,0.117795,-0.120206,-0.0931163,0.0579016,-0.161315
-0.0397696,-0.0191894,0.0986404,0.0432618,0.0720824,0.113469,-0.128042,-0.131873,0.0810231,-0.089603
-0.0425127,-0.0709984,0.146551,0.0371447,0.0683539,0.105598,-0.120782,-0.133291,0.0435157,-0.0335797
-0.0417942,-0.0700353,0.171045,-0.014236,0.0312474,0.0889192,-0.091929,-0.110147,0.0154877,0.0214417
-0.0353854,-0.0543136,0.17508,-0.0611254,0.0119346,0.0656631,-0.0655213,-0.0746145,0.0027143,0.0355677
-0.0213147,-0.0339959,0.152843,-0.0548841,-0.00649366,0.0353767,-0.0413892,-0.040373,-0.0117327,0.0219635
-0.0102438,-0.0191446,0.0995613,-0.0314234,-0.00620872,0.0120136,-0.0224767,-0.0214512,-0.0193133,0.0186868
-0.0013535,-0.00744341,0.0441007,-0.0128129,-0.00332984,-0.000175517,-0.0090298,-0.00766885,-0.0114987,0.00921183
-0.000139649,-0.00141721,0.0120966,-0.00343201,-0.000522002,-0.00014794,-0.00273729,-0.00232447,-0.00278236,0.0014063
-1.99474e-05,0.000346865,0.000109218,-0.00012152,0.000171495,5.5304e-07,-5.80895e-05,-1.76122e-05,-0.000186459,-0.000224503
3.1638e-06,-1.38738e-12,-2.12022e-07,-7.07019e-08,-6.11303e-10,-1.41638e-06,-1.0469e-07,-8.91894e-10,-1.35712e-06,-1.36931e-09
0.0,0.0,0.0,0.0,0.0,0.0,0.0,0.0,0.0,0.0
0.0,0.0,0.0,0.0,0.0,0.0,0.0,0.0,0.0,0.0
-0.000315462,-0.000150603,-0.000486944,0.00709942,-0.000249253,-0.000661,-0.000112125,-0.0026789,-0.00112903,-0.0013161
-0.00532698,-0.00195521,0.000168062,0.0343325,-0.00175048,-0.00320228,-0.00148449,-0.00613116,-0.0100131,-0.00463687
-0.0126317,0.0095979,0.00102641,0.0835597,-0.00777893,-0.00340467,-0.00530973,-0.00445871,-0.0456766,-0.0149236
-0.00390241,0.0508074,-0.0117274,0.143188,-0.0225524,-0.0130697,-0.0149511,0.00201644,-0.0941516,-0.0356577
0.0126232,0.0968235,-0.039758,0.198061,-0.0462809,-0.0210052,-0.0365936,0.00960826,-0.105543,-0.0679355
0.0594147,0.102856,-0.0674698,0.222863,-0.0709878,-0.0145229,-0.0764823,0.0337904,-0.0814368,-0.108024
0.0999373,0.0833018,-0.0893611,0.191919,-0.0821525,0.0410764,-0.129745,0.0352239,-0.0351803,-0.115019
0.137141,0.0170445,-0.0887807,0.188083,-0.0891619,0.0975681,-0.189348,0.0558938,-0.00677872,-0.121661
0.167426,-0.0866722,-0.0869391,0.164658,-0.0989031,0.14215,-0.244056,0.0732844,0.076854,-0.107803
0.200511,-0.169694,-0.117938,0.153071,-0.0723189,0.174224,-0.284683,0.0511984,0.20226,-0.136629
0.206483,-0.186337,-0.165578,0.110743,-0.0804912,0.190012,-0.303687,0.0419642,0.342963,-0.156072
0.172557,-0.142846,-0.219607,0.0780124,-0.0658955,0.187248,-0.294906,0.0631539,0.426152,-0.20387
0.120327,-0.0181363,-0.231695,0.0406915,-0.0519916,0.167865,-0.281968,0.0891951,0.380822,-0.21511
0.0629682,0.105816,-0.208872,0.0294744,-8.59979e-05,0.136204,-0.265338,0.0774248,0.296195,-0.233786
0.00854101,0.160365,-0.152871,-0.00934786,0.0305196,0.112777,-0.240491,0.0322102,0.219324,-0.161027
-0.0307944,0.104118,-0.108674,0.00456042,0.0772451,0.0756676,-0.195025,-0.0092283,0.16166,-0.0795296
-0.0628477,-8.85082e-06,-0.0399447,0.0219307,0.116221,0.0532852,-0.138758,-0.0641588,0.11783,-0.00354928
-0.0658327,-0.032321,0.0132819,-0.01544,0.092525,0.0520004,-0.090942,-0.0860609,0.0711206,0.0616687
-0.0499097,-0.0302739,0.0412012,-0.048572,0.0589695,0.0471797,-0.0583583,-0.0767069,0.0323407,0.0841295
-0.0314353,-0.0283582,0.0596402,-0.0466845,0.0241009,0.0232277,-0.0392468,-0.0495624,0.00977028,0.0785482
-0.0158937,-0.0176345,0.052265,-0.0323654,0.00208996,0.0139189,-0.0204193,-0.0304807,-0.00579057,0.0543104
-0.005244,-0.00938106,0.024864,-0.0137037,-0.00171746,0.00589377,-0.0098858,-0.0146463,-0.00477759,0.0285982
0.000127589,-0.00293971,0.0123088,-0.00313283,-0.00263099,7.77761e-05,-0.00415817,-0.00524834,-0.00493428,0.0105301
0.000136278,0.000457636,0.00362288,-0.000995928,9.17902e-05,-1.9636e-05,-0.000792336,-0.00180245,-0.00132711,0.000628876
-5.98292e-06,0.000541715,-0.000113301,0.000110393,0.00018176,-7.19075e-06,-1.89712e-05,-1.62069e-05,-0.000439571,-0.000232645
0.0,0.0,0.0,0.0,0.0,0.0,0.0,0.0,0.0,0.0
0.0,0.0,0.0,0.0,0.0,0.0,0.0,0.0,0.0,0.0
0.0,0.0,0.0,0.0,0.0,0.0,0.0,0.0,0.0,0.0
-0.000150215,-5.31274e-05,-0.00012378,0.00294396,-6.43505e-05,-0.000251608,-5.03862e-05,-0.00199401,-8.0052e-05,-0.000176431
-0.000743734,-0.00137151,-0.00388002,0.0107406,-0.000329481,0.000255298,-0.000133603,6.71262e-05,-0.00286592,-0.00173872
-0.00216577,-0.000663219,-0.0123056,0.0366516,-0.00297713,-0.00332335,-0.00092052,0.0110306,-0.0210044,-0.00432227
-0.00645592,0.0145149,-0.024271,0.0709923,-0.00926857,-0.00728765,-0.00383638,0.0313185,-0.0581691,-0.00753691
-0.00864563,0.0189967,-0.0527852,0.1142,-0.0229664,-0.0102699,-0.00937433,0.0672117,-0.0870869,-0.00928005
-0.0194048,-0.00478372,-0.0870545,0.14985,-0.0344788,-0.000531711,-0.0218463,0.119356,-0.0933996,-0.00770651
-0.0118934,-0.0485806,-0.115155,0.159166,-0.0389658,-0.00491449,-0.0444783,0.153476,-0.0527742,0.00411966
-0.0105804,-0.101684,-0.148968,0.181789,-0.0624242,0.0327357,-0.0654725,0.171815,-0.020763,0.0235521
-0.00567377,-0.158188,-0.161312,0.196752,-0.0747728,0.0623971,-0.0890701,0.195068,0.0189425,0.0158559
-0.00407714,-0.19014,-0.151819,0.189386,-0.0793364,0.102079,-0.110788,0.174269,0.0640942,0.00633295
-0.00366226,-0.187509,-0.150813,0.162977,-0.0895085,0.126154,-0.119769,0.165851,0.107618,-0.0113396
-0.0144006,-0.167092,-0.152062,0.14812,-0.0916947,0.138153,-0.128314,0.173374,0.135319,-0.0414024
-0.0322143,-0.106985,-0.147727,0.0978352,-0.0789728,0.111839,-0.128779,0.186818,0.169347,-0.0711611
-0.0515813,-0.0523224,-0.141694,0.0428199,-0.0515478,0.0670457,-0.1244,0.190588,0.177566,-0.0564737
-0.0657563,-0.0224113,-0.121847,0.00626618,-0.0358376,0.0213661,-0.11055,0.129174,0.16198,0.0376153
-0.071673,-0.00883041,-0.104342,-0.0254464,-0.016228,0.0127256,-0.085346,0.0627569,0.101106,0.135278
-0.0655331,-0.0119996,-0.0780029,-0.0509856,0.0104229,0.00810128,-0.0582384,-0.0118751,0.0883994,0.169711
-0.0519103,-0.00868473,-0.0634627,-0.0556995,0.018182,0.00475712,-0.0389081,-0.039981,0.0636362,0.172071
-0.0334603,-0.00876438,-0.0339929,-0.0441372,0.00139494,0.00689724,-0.0253164,-0.0439929,0.0263032,0.155069
-0.0209002,-0.00519819,-0.0156354,-0.022,-0.0126548,0.00576704,-0.0156315,-0.0332944,0.00543611,0.114111
-0.00958691,-0.00448326,-0.00768457,-0.0100153,-0.00946062,0.00686773,-0.00752512,-0.0217786,-0.000346531,0.0640132
-0.00280494,-0.00118297,-0.00812596,-0.00344616,-0.00486694,0.00374735,-0.00298754,-0.0128309,0.000124172,0.0323739
-0.0003266,-8.26526e-05,0.00169486,-0.000474995,-0.00346217,0.000866123,-0.00082599,-0.00367189,-0.00141693,0.00770025
3.4374e-06,0.00018925,0.00200605,-0.000143219,-0.000188304,-2.25053e-05,-5.63712e-05,-0.0014355,-0.000321139,-3.16959e-05
-2.12105e-08,3.51474e-05,0.00029642,-7.11584e-07,-5.1558e-08,-2.71226e-06,-1.23174e-06,-1.15355e-07,-2.8336e-05,-0.000298388
0.0,0.0,0.0,0.0,0.0,0.0,0.0,0.0,0.0,0.0
0.0,0.0,0.0,0.0,0.0,0.0,0.0,0.0,0.0,0.0
0.0,0.0,0.0,0.0,0.0,0.0,0.0,0.0,0.0,0.0
-1.78135e-05,-7.64621e-06,-1.22549e-05,0.00025612,-1.46317e-05,-1.2288e-05,-7.62041e-06,-0.00041106,-3.84198e-05,0.000265615
-7.71747e-05,-0.000178087,-0.00190752,0.00103339,-5.69882e-05,0.00111107,-2.68447e-05,0.00257477,-0.00121125,-0.00126136
-0.00100841,-0.00102511,-0.00527683,0.00585049,-0.00141939,0.000872243,-0.000167157,0.010715,-0.00677764,-0.00176323
-0.00420905,-0.00369614,-0.0114261,0.0119911,-0.00899302,-0.00429218,-0.00113677,0.032816,-0.0201469,0.00909301
-0.0123547,-0.00975117,-0.024711,0.0221265,-0.0174299,-0.0068468,-0.00400168,0.0739487,-0.0403887,0.0194087
-0.0231459,-0.0254067,-0.040807,0.0278578,-0.0367531,-0.00529167,-0.00725042,0.128604,-0.0678346,0.050028
-0.0386368,-0.0380697,-0.0549806,0.0378122,-0.0620624,-0.00728987,-0.0134791,0.186563,-0.0928099,0.0829529
-0.0579641,-0.056209,-0.0607953,0.049256,-0.0998195,0.00865428,-0.0190433,0.217309,-0.113012,0.131624
-0.0730233,-0.0799515,-0.0569925,0.0688338,-0.124843,0.0201301,-0.0252817,0.226412,-0.116492,0.161207
-0.0816423,-0.0926421,-0.0542039,0.0763368,-0.154244,0.0354706,-0.0311005,0.249008,-0.113551,0.166569
-0.0868461,-0.0962299,-0.0517972,0.0716053,-0.172051,0.0370214,-0.0346076,0.245268,-0.106702,0.194339
-0.0820182,-0.0963357,-0.0494416,0.061851,-0.171793,0.0269658,-0.0376362,0.239796,-0.0791428,0.187755
-0.079687,-0.082757,-0.0491712,0.0372932,-0.168829,-0.00478699,-0.0375889,0.259225,-0.0365472,0.16285
-0.0747542,-0.0730943,-0.0451651,0.00337313,-0.177714,-0.0215047,-0.0364956,0.260618,-0.0140154,0.178752
-0.0686295,-0.0443003,-0.0380929,-0.0230292,-0.180759,-0.0171143,-0.0329968,0.178652,-0.0146888,0.240959
-0.0550047,-0.01999,-0.0322699,-0.0450871,-0.17382,-0.0138272,-0.026975,0.0984916,-0.0098205,0.278303
-0.0428938,-0.00957495,-0.0305758,-0.043167,-0.137824,-0.01859,-0.021164,0.0360282,-0.00552243,0.273284
-0.0304413,-0.00551887,-0.0277347,-0.0313131,-0.0933698,-0.0142052,-0.0138969,-0.00590965,-0.00693187,0.229321
-0.017209,-0.00291128,-0.0175603,-0.0188501,-0.0651703,-0.00829261,-0.00808763,-0.0215556,-0.00532596,0.164963
-0.0104379,-0.00166947,-0.0140649,-0.0103688,-0.0409439,0.00037441,-0.00446313,-0.0168594,-0.00583202,0.104265
-0.00524494,-0.000995312,-0.00977431,-0.00376477,-0.0165138,0.0038008,-0.00217457,-0.00894629,-0.00253779,0.046151
-0.00157103,-0.000104503,-0.00529442,-0.00106511,-0.00455883,0.00169133,-0.00125054,-0.00699552,-0.000624764,0.0197734
-0.000196546,-2.35568e-05,-0.000898293,-3.36824e-05,-0.00183021,0.000932482,-0.000102348,-0.000528972,-0.000189276,0.0028704
-5.22575e-07,-2.19845e-08,0.000262076,-2.22182e-05,-0.000244751,-3.72251e-06,-1.10554e-06,-7.91401e-05,-4.61555e-05,0.000135561
-6.3719e-09,-4.87466e-09,0.000314761,-9.05247e-10,-3.96284e-08,2.85135e-10,-3.15175e-08,-1.30048e-08,1.63692e-06,-0.000316302
0.0,0.0,0.0,0.0,0.0,0.0,0.0,0.0,0.0,0.0
0.0,0.0,0.0,0.0,0.0,0.0,0.0,0.0,0.0,0.0
0.0,0.0,0.0,0.0,0.0,0.0,0.0,0.0,0.0,0.0
0.0,0.0,0.0,0.0,0.0,0.0,0.0,0.0,0.0,0.0
0.0,0.0,0.0,0.0,0.0,0.0,0.0,0.0,0.0,0.0
-0.000175595,-0.000401203,-0.000490694,-9.27745e-05,-0.00136476,-0.000438854,-7.34602e-05,0.002896,-0.00314447,0.00328581
-0.00130352,-0.001162,-0.00155953,-0.000315196,-0.00336208,-0.00114837,-0.000295033,0.00845474,-0.00527033,0.00596132
-0.00403866,-0.00291342,-0.00327873,-0.00105744,-0.00851199,-0.00266323,-0.000866125,0.0213,-0.00957559,0.0116052
-0.00772078,-0.00544124,-0.00410233,-0.0018781,-0.0151821,-0.00437908,-0.00153454,0.034874,-0.0117486,0.0171128
-0.0143177,-0.00824903,-0.00472134,-0.00419373,-0.0286651,-0.00618567,-0.00311428,0.057315,-0.0141404,0.0262723
-0.0236925,-0.0116617,-0.00574041,-0.00760478,-0.0478336,-0.00813073,-0.00469599,0.0769743,-0.0169975,0.0493829
-0.0239079,-0.0147642,-0.00756473,-0.0109307,-0.0622627,-0.00683503,-0.00644689,0.0900162,-0.0226965,0.0653923
-0.0249616,-0.0179802,-0.00922151,-0.0120112,-0.0827429,-0.00669224,-0.00849031,0.126932,-0.0253312,0.0604989
-0.0229171,-0.0222582,-0.00815144,-0.0124176,-0.093879,-0.00638665,-0.00907017,0.121375,-0.0270931,0.0807987
-0.0250583,-0.0274445,-0.00800947,-0.0156021,-0.100573,-0.0114458,-0.00968678,0.142829,-0.0272206,0.0822113
-0.0294137,-0.0250581,-0.00812469,-0.0210748,-0.115114,-0.0171255,-0.0106703,0.162223,-0.0267835,0.0911417
-0.0298647,-0.0167309,-0.00711822,-0.0206946,-0.108,-0.0105751,-0.00952843,0.163262,-0.0232085,0.062458
-0.026898,-0.00787889,-0.00565607,-0.0195416,-0.10151,-0.0087714,-0.00857685,0.132217,-0.0176277,0.0642436
-0.0203985,-0.00399617,-0.00481732,-0.019238,-0.0812373,-0.00822174,-0.00833596,0.0865073,-0.0135241,0.0732618
-0.0153594,-0.00306239,-0.00423964,-0.0139988,-0.0660851,-0.0105499,-0.00615905,0.0509243,-0.00946148,0.0779916
-0.00927833,-0.00176344,-0.00386474,-0.00933815,-0.0453776,-0.00767783,-0.00370985,0.0139043,-0.00653542,0.0736411
-0.00642992,-0.0011192,-0.0029867,-0.00483302,-0.0241778,-0.000110405,-0.00247725,-0.00609053,-0.00403942,0.0522642
-0.00455513,-0.00070379,-0.00164004,-0.000724314,-0.0108276,0.00251257,-0.00128564,-0.00336994,-0.00215622,0.0227501
-0.00317004,-0.000146899,-0.000205874,7.25096e-05,-0.00411199,0.00140965,-0.000261482,0.00158154,-0.000366411,0.005199
-0.000574728,-4.66125e-05,-5.04062e-05,-4.33405e-05,-0.000572296,-1.21265e-05,-6.8341e-05,-0.000614211,-0.000183213,0.00216527
-2.03717e-06,-5.67747e-07,-7.86157e-07,-1.08772e-06,-0.000166091,-7.6136e-07,-1.86992e-06,-4.97239e-06,-1.72908e-06,0.000179902
-1.9285e-07,-2.83341e-08,-2.02932e-07,-1.09425e-08,-4.06187e-08,-2.92246e-07,-3.77895e-09,2.43082e-06,-3.88524e-07,-1.27038e-06
0.0,0.0,0.0,0.0,0.0,0.0,0.0,0.0,0.0,0.0
0.0,0.0,0.0,0.0,0.0,0.0,0.0,0.0,0.0,0.0
0.0,0.0,0.0,0.0,0.0,0.0,0.0,0.0,0.0,0.0
0.0,0.0,0.0,0.0,0.0,0.0,0.0,0.0,0.0,0.0
0.0,0.0,0.0,0.0,0.0,0.0,0.0,0.0,0.0,0.0
0.0,0.0,0.0,0.0,0.0,0.0,0.0,0.0,0.0,0.0
-1.24611e-06,-3.48867e-06,-3.7564e-07,-3.64082e-08,-2.14737e-07,-4.83515e-07,-3.00218e-08,5.35035e-05,-3.8116e-05,-9.51248e-06
-2.24264e-05,-8.83433e-06,-1.04429e-06,-1.48152e-07,-1.23814e-06,-7.6203e-06,-2.96027e-07,0.000164452,-9.65473e-05,-2.62968e-05
-3.42633e-05,-1.00031e-05,-4.62888e-06,-1.95931e-06,-0.000102082,-1.3335e-05,-5.91724e-06,0.000217945,-9.63137e-05,5.05571e-05
-0.000184987,-0.000101011,-9.28814e-05,-6.05555e-05,-0.000718842,-7.22028e-05,-0.000111913,0.00122318,-0.000138455,0.000257671
-0.000506308,-0.000173422,-0.00015764,-0.000137468,-0.00164923,-0.000218337,-0.000204864,0.00393749,-0.000350495,-0.000539722
-0.000757554,-0.00018378,-0.000167029,-0.000214399,-0.00213917,-0.000371006,-0.000190372,0.00366782,-0.000400433,0.000755917
-0.0013046,-0.000371897,-0.000385228,-0.000620923,-0.00497549,-6.6979e-05,-0.000509152,0.00739451,-0.00089734,0.00173709
-0.00171241,-0.000411513,-0.000398761,-0.000752692,-0.00381053,0.000478673,-0.000634985,0.00921617,-0.000887091,-0.00108687
-0.00172658,-0.000621379,-0.00025482,-0.000645688,-0.00536209,3.70397e-06,-0.000435693,0.0104892,-0.000877379,-0.0005693
-0.00351635,-0.000913279,-0.000417534,-0.00142483,-0.00705926,-0.00108464,-0.000740855,0.0213159,-0.00142683,-0.00473237
-0.00709275,-0.000918537,-0.000774598,-0.00238236,-0.0126644,-0.00247312,-0.00141234,0.0294043,-0.00242905,0.000742764
-0.00833104,-0.000789767,-0.000949889,-0.00259081,-0.00811704,-0.00205746,-0.00156441,0.0328217,-0.0024603,-0.00596094
-0.00708476,-0.000750384,-0.000905453,-0.00314356,-0.00993695,-0.00169389,-0.00149354,0.0344273,-0.00283015,-0.00658861
-0.00560461,-0.000789369,-0.000799148,-0.00270688,-0.00806667,-0.00166251,-0.00130837,0.03297,-0.0024414,-0.00959101
-0.00434843,-0.000969956,-0.00045923,-0.00140499,-0.00581109,-0.00134766,-0.000701509,0.0207704,-0.000917511,-0.00481002
-0.00246796,-6.08764e-05,-7.89657e-05,-0.000607261,-0.00522787,-0.00086024,-0.000178077,0.00940202,-0.000349658,0.000428888
-0.00182402,-5.88916e-06,-1.75521e-05,-0.000290633,-0.00129917,-0.000432514,-5.2174e-05,0.00323909,-0.000157101,0.000839949
-0.0011523,-3.09078e-06,-5.22509e-06,-0.000198662,-0.000318513,-0.000107913,-1.89505e-05,0.000875493,-5.17497e-05,0.000980912
-0.00299803,-7.94445e-06,3.9551e-06,-5.88533e-05,-0.000313356,-4.35749e-05,-3.87963e-05,0.00332427,-6.77742e-05,0.000200106
-0.000727546,-2.03219e-06,-3.1899e-06,-5.57386e-06,-7.47593e-05,-9.6918e-06,-9.87588e-06,0.000875013,-1.69953e-05,-2.53493e-05
0.0,0.0,0.0,0.0,0.0,0.0,0.0,0.0,0.0,0.0
0.0,0.0,0.0,0.0,0.0,0.0,0.0,0.0,0.0,0.0
0.0,0.0,0.0,0.0,0.0,0.0,0.0,0.0,0.0,0.0
0.0,0.0,0.0,0.0,0.0,0.0,0.0,0.0,0.0,0.0
